{"learner":{"attributes":{"scikit_learn":"{\"_estimator_type\": \"classifier\"}"},"feature_names":[],"feature_types":[],"gradient_booster":{"model":{"cats":{"enc":[],"feature_segments":[],"sorted_idx":[]},"gbtree_model_param":{"num_parallel_tree":"1","num_trees":"100"},"iteration_indptr":[0,1,2,3,4,5,6,7,8,9,10,11,12,13,14,15,16,17,18,19,20,21,22,23,24,25,26,27,28,29,30,31,32,33,34,35,36,37,38,39,40,41,42,43,44,45,46,47,48,49,50,51,52,53,54,55,56,57,58,59,60,61,62,63,64,65,66,67,68,69,70,71,72,73,74,75,76,77,78,79,80,81,82,83,84,85,86,87,88,89,90,91,92,93,94,95,96,97,98,99,100],"tree_info":[0,0,0,0,0,0,0,0,0,0,0,0,0,0,0,0,0,0,0,0,0,0,0,0,0,0,0,0,0,0,0,0,0,0,0,0,0,0,0,0,0,0,0,0,0,0,0,0,0,0,0,0,0,0,0,0,0,0,0,0,0,0,0,0,0,0,0,0,0,0,0,0,0,0,0,0,0,0,0,0,0,0,0,0,0,0,0,0,0,0,0,0,0,0,0,0,0,0,0,0],"trees":[{"base_weights":[-1.678041E-8,-8.580254E-1,1.3969338E0,-2.8606546E-1,-1.3504385E0,3.792653E-1,1.583242E0,-4.4465733E-1,9.9170876E-1,-1.4200581E0,2.9456156E-1,6.986238E-1,-6.755642E-1,1.31784E0,1.6523759E0,-2.0011451E-2,-7.2961026E-1,1.1207489E0,-6.505249E-1,-1.1656722E0,-1.63326E0,5.24597E-1,-5.673314E-1,1.0215583E0,1.6999693E-1,-1.0130303E0,8.8875157E-1,1.4322443E0,6.5013456E-1,1.6577593E0,-8.060002E-1,-5.575205E-1,3.011092E-1,-2.3797125E-1,-1.6566886E0,1.2894444E0,5.336938E-1,3.4443527E-1,-1.6894245E0,-1.1992905E0,4.5805043E-1,-1.7739923E0,-5.559038E-1,6.605236E-1,-1.0707071E0,1.058005E0,-4.648066E-1,-6.8432635E-1,4.1222274E-1,4.3930689E-1,-1.3182813E0,-2.6853353E-1,1.113745E0,1.4601231E0,-9.8911595E-1,4.7953326E-1,1.4756225E-1,1.6590903E0,1.2723705E-1,1.3961115E-1,-4.648066E-1,-1.897913E-1,4.4311938E-1,2.3688353E-3,2.3493092E-1,3.776701E-2,-1.78596E-1,-5.216456E-1,3.5041012E-2,5.6942187E-2,3.9890122E-1,-6.592875E-2,4.278834E-1,-9.585641E-2,3.662568E-1,-6.076201E-1,-6.973167E-2,-3.7639624E-1,9.313442E-2,-3.549755E-1,-5.802697E-1,-6.483477E-2,-5.257741E-1,2.728139E-1,1.7764136E-2,-4.456467E-2,-5.232204E-1,3.4483433E-1,8.462362E-2,-3.1328103E-1,2.2888644E-1,-1.2972602E-1,1.8215415E-1,1.8334405E-1,-4.3350428E-1,4.2880714E-1,-1.0570814E-2,4.4765672E-1,2.6087296E-1,-5.0671077E-1,1.3961115E-1,-1.9783908E-1,3.566808E-1,4.981274E-1,1.2723705E-1],"categories":[],"categories_nodes":[],"categories_segments":[],"categories_sizes":[],"default_left":[0,0,0,0,0,0,0,0,0,0,0,0,0,0,0,0,0,0,0,0,0,0,0,0,0,0,0,0,0,0,0,0,0,0,0,0,0,0,0,0,0,0,0,0,0,0,0,0,0,0,0,0,0,0,0,0,0,0,0,0,0,0,0,0,0,0,0,0,0,0,0,0,0,0,0,0,0,0,0,0,0,0,0,0,0,0,0,0,0,0,0,0,0,0,0,0,0,0,0,0,0,0,0,0,0],"id":0,"left_children":[1,3,5,7,9,11,13,15,17,19,21,23,25,27,29,31,33,35,37,39,41,43,-1,45,47,49,51,53,55,57,59,61,63,65,67,69,71,73,75,77,-1,79,81,83,85,87,-1,89,91,-1,93,-1,95,97,99,-1,101,103,-1,-1,-1,-1,-1,-1,-1,-1,-1,-1,-1,-1,-1,-1,-1,-1,-1,-1,-1,-1,-1,-1,-1,-1,-1,-1,-1,-1,-1,-1,-1,-1,-1,-1,-1,-1,-1,-1,-1,-1,-1,-1,-1,-1,-1,-1,-1],"loss_changes":[6.940905E3,1.00996533E3,4.1717236E2,3.3701447E2,2.2116089E2,1.157769E2,3.1989746E1,1.7885516E2,3.965625E1,9.839844E1,4.0757244E1,4.4762802E1,4.316143E1,2.8842346E1,2.0835693E1,1.0280457E2,4.027864E2,1.6214706E1,1.5068785E1,7.847583E1,1.511853E2,1.6394163E1,0E0,1.69319E1,2.118778E1,5.2080574E1,6.9121914E0,2.3850464E1,2.780923E1,1.7104492E0,4.399504E0,3.4976074E1,5.269377E1,7.538658E1,4.482843E1,5.580948E0,2.7082712E1,5.039271E0,2.9682865E0,7.033765E1,0E0,8.169702E1,4.7363155E1,1.0013985E1,3.5047321E0,1.1136002E1,0E0,1.2617794E1,1.33260565E1,0E0,1.5448776E1,0E0,4.9578857E0,4.923889E0,5.2391505E0,0E0,3.40336E1,1.7158203E0,0E0,0E0,0E0,0E0,0E0,0E0,0E0,0E0,0E0,0E0,0E0,0E0,0E0,0E0,0E0,0E0,0E0,0E0,0E0,0E0,0E0,0E0,0E0,0E0,0E0,0E0,0E0,0E0,0E0,0E0,0E0,0E0,0E0,0E0,0E0,0E0,0E0,0E0,0E0,0E0,0E0,0E0,0E0,0E0,0E0,0E0,0E0],"parents":[2147483647,0,0,1,1,2,2,3,3,4,4,5,5,6,6,7,7,8,8,9,9,10,10,11,11,12,12,13,13,14,14,15,15,16,16,17,17,18,18,19,19,20,20,21,21,23,23,24,24,25,25,26,26,27,27,28,28,29,29,30,30,31,31,32,32,33,33,34,34,35,35,36,36,37,37,38,38,39,39,41,41,42,42,43,43,44,44,45,45,47,47,48,48,50,50,52,52,53,53,54,54,56,56,57,57],"right_children":[2,4,6,8,10,12,14,16,18,20,22,24,26,28,30,32,34,36,38,40,42,44,-1,46,48,50,52,54,56,58,60,62,64,66,68,70,72,74,76,78,-1,80,82,84,86,88,-1,90,92,-1,94,-1,96,98,100,-1,102,104,-1,-1,-1,-1,-1,-1,-1,-1,-1,-1,-1,-1,-1,-1,-1,-1,-1,-1,-1,-1,-1,-1,-1,-1,-1,-1,-1,-1,-1,-1,-1,-1,-1,-1,-1,-1,-1,-1,-1,-1,-1,-1,-1,-1,-1,-1,-1],"split_conditions":[3.2638784E-2,-2.8899106E-1,-6.3361156E-1,6.561742E-1,6.561742E-1,-3.0450326E-1,9.114938E-1,1.4860523E-2,3.2768518E-1,2.5061122E-1,9.1801316E-1,-6.164517E-1,9.114938E-1,9.6463285E-2,3.9816847E0,-3.1367794E-1,-6.7427635E-1,-3.9306682E-1,-6.774779E-1,1.7650294E-1,2.587765E0,3.065846E-1,-5.673314E-1,2.270074E0,-3.1367794E-1,8.879662E-1,-2.7777156E-1,4.1426367E-1,9.047122E-1,3.9009087E0,-3.8032767E-1,-8.648664E-1,-1.5996313E0,-9.0549827E-1,7.4379855E-1,-1.2264212E0,6.6650194E-1,8.218103E-1,-2.3258643E-1,7.4379855E-1,4.5805043E-1,-6.297379E-1,-2.340593E-3,3.761558E-1,-4.7545585E-1,-6.4756477E-1,-4.648066E-1,7.4534893E-1,-6.629927E-1,4.3930689E-1,-6.533864E-1,-2.6853353E-1,-9.752211E-2,6.9116175E-1,-4.6186844E-1,4.7953326E-1,1.2654473E0,7.1926804E0,1.2723705E-1,1.3961115E-1,-4.648066E-1,-1.897913E-1,4.4311938E-1,2.3688353E-3,2.3493092E-1,3.776701E-2,-1.78596E-1,-5.216456E-1,3.5041012E-2,5.6942187E-2,3.9890122E-1,-6.592875E-2,4.278834E-1,-9.585641E-2,3.662568E-1,-6.076201E-1,-6.973167E-2,-3.7639624E-1,9.313442E-2,-3.549755E-1,-5.802697E-1,-6.483477E-2,-5.257741E-1,2.728139E-1,1.7764136E-2,-4.456467E-2,-5.232204E-1,3.4483433E-1,8.462362E-2,-3.1328103E-1,2.2888644E-1,-1.2972602E-1,1.8215415E-1,1.8334405E-1,-4.3350428E-1,4.2880714E-1,-1.0570814E-2,4.4765672E-1,2.6087296E-1,-5.0671077E-1,1.3961115E-1,-1.9783908E-1,3.566808E-1,4.981274E-1,1.2723705E-1],"split_indices":[5,24,6,7,7,24,5,5,0,0,17,10,5,0,2,21,0,11,11,0,12,20,0,2,21,5,24,18,5,18,24,5,28,0,8,28,9,4,21,8,0,12,27,4,2,9,0,10,15,0,16,0,16,13,12,0,7,22,0,0,0,0,0,0,0,0,0,0,0,0,0,0,0,0,0,0,0,0,0,0,0,0,0,0,0,0,0,0,0,0,0,0,0,0,0,0,0,0,0,0,0,0,0,0,0],"split_type":[0,0,0,0,0,0,0,0,0,0,0,0,0,0,0,0,0,0,0,0,0,0,0,0,0,0,0,0,0,0,0,0,0,0,0,0,0,0,0,0,0,0,0,0,0,0,0,0,0,0,0,0,0,0,0,0,0,0,0,0,0,0,0,0,0,0,0,0,0,0,0,0,0,0,0,0,0,0,0,0,0,0,0,0,0,0,0,0,0,0,0,0,0,0,0,0,0,0,0,0,0,0,0,0,0],"sum_hessian":[5.7888213E3,3.5863794E3,2.202442E3,1.6599055E3,1.9264738E3,3.412845E2,1.8611573E3,1.4772123E3,1.8269325E2,1.8483833E3,7.8090515E1,2.622299E2,7.9054596E1,3.8876544E2,1.4723918E3,5.9363257E2,8.835797E2,1.6967816E2,1.3015086E1,8.4573956E2,1.0026437E3,7.134196E1,6.7485633E0,1.6220654E2,1.00023346E2,6.531645E1,1.3738147E1,3.3092062E2,5.7844826E1,1.4694996E3,2.8922415E0,2.2173851E2,3.7189404E2,5.782073E2,3.053725E2,1.3087392E2,3.8804237E1,6.9895835E0,6.0255027E0,8.358577E2,9.8818245E0,8.8623096E2,1.1641271E2,6.628053E1,5.0614223E0,1.605194E2,1.6871408E0,2.169181E1,7.8331535E1,6.7485633E0,5.8567886E1,1.2051005E0,1.2533046E1,3.2754633E2,3.3742816E0,1.9281609E1,3.8563217E1,1.4675714E3,1.9281609E0,1.2051005E0,1.6871408E0,2.145079E2,7.230603E0,2.3186134E2,1.4003268E2,2.8681393E2,2.913933E2,2.9187537E2,1.3497127E1,4.820402E0,1.2605352E2,2.145079E1,1.7353449E1,4.338362E0,2.6512213E0,4.579382E0,1.4461207E0,8.064533E2,2.9404453E1,1.9088792E2,6.95343E2,9.158765E1,2.4825071E1,4.651688E1,1.9763649E1,2.6512213E0,2.410201E0,1.4316595E2,1.7353449E1,1.759447E1,4.097342E0,1.4461206E1,6.387033E1,3.3742816E0,5.5193607E1,9.640804E0,2.8922415E0,3.092288E2,1.8317528E1,2.169181E0,1.2051005E0,2.193283E1,1.6630388E1,1.4656433E3,1.9281609E0],"tree_param":{"num_deleted":"0","num_feature":"29","num_nodes":"105","size_leaf_vector":"1"}},{"base_weights":[1.6050505E-2,-5.843585E-1,1.1421816E0,-2.2715952E-1,-9.4926876E-1,2.8903311E-1,1.31462E0,-3.37554E-1,9.123627E-1,-9.869549E-1,3.4041613E-1,4.683586E-1,-7.11054E-1,1.0641694E0,1.3821903E0,-4.061574E-1,1.2561616E0,5.7504517E-1,1.240973E0,-9.049645E-1,-1.4324788E0,6.340993E-1,-1.2218244E0,7.748223E-1,8.523521E-2,-1.0061706E0,7.917196E-1,1.1133275E0,-1.924507E-1,1.3881288E0,-4.904535E-1,-1.15791135E-1,-6.07818E-1,1.3736597E0,-6.108907E-1,6.8184584E-1,-1.1059341E0,5.7034814E-3,1.2715299E0,-9.380465E-1,2.51807E-1,-1.4765452E0,8.081722E-2,-4.4130035E-2,1.2357136E0,-1.4431733E0,2.0879878E-2,8.156899E-1,-4.1533357E-1,-9.051029E-1,2.6876995E-1,3.3796924E-1,-1.2335159E0,1.0536613E0,-1.461517E-1,1.1541034E0,2.7754812E-2,3.6604688E-1,-1.4341621E0,1.3911906E0,6.1760706E-1,1.6798946E-1,-3.580073E-1,-1.3709363E-1,2.0938916E-2,-9.392407E-2,-3.679441E-1,-2.0568414E-2,4.2018119E-1,2.7957463E-1,-4.49999E-1,-2.8567439E-2,2.5840622E-1,-4.8878652E-1,1.21784166E-1,4.0131968E-1,1.888843E-1,-2.2751653E-1,-3.6295497E-1,1.8356322E-1,-1.6609862E-1,-2.8054756E-1,-4.768693E-1,1.9241178E-1,-4.0898266E-1,1.1558548E-1,-3.078684E-1,-7.306134E-2,4.0281454E-1,-9.8940045E-2,-4.8184252E-1,2.551122E-1,-2.2333711E-1,-3.9779335E-1,2.8830957E-1,2.035319E-2,3.5033798E-1,-3.9914206E-1,1.1000671E-1,1.8463599E-2,3.7803638E-1,3.0287227E-1,4.1398123E-1,3.4762347E-1,-1.7010833E-1,-5.401903E-1,-1.2755997E-1,4.1781232E-1,1.1827274E-1,2.938506E-1,-1.6631943E-1],"categories":[],"categories_nodes":[],"categories_segments":[],"categories_sizes":[],"default_left":[0,0,0,0,0,0,0,0,0,0,0,0,0,0,0,0,0,0,0,0,0,0,0,0,0,0,0,0,0,0,0,0,0,0,0,0,0,0,0,0,0,0,0,0,0,0,0,0,0,0,0,0,0,0,0,0,0,0,0,0,0,0,0,0,0,0,0,0,0,0,0,0,0,0,0,0,0,0,0,0,0,0,0,0,0,0,0,0,0,0,0,0,0,0,0,0,0,0,0,0,0,0,0,0,0,0,0,0,0,0,0],"id":1,"left_children":[1,3,5,7,9,11,13,15,17,19,21,23,25,27,29,31,33,35,37,39,41,43,45,47,49,51,53,55,57,59,61,63,65,67,69,71,73,-1,75,77,79,81,83,85,87,89,-1,91,-1,93,95,-1,97,99,-1,101,103,-1,105,107,109,-1,-1,-1,-1,-1,-1,-1,-1,-1,-1,-1,-1,-1,-1,-1,-1,-1,-1,-1,-1,-1,-1,-1,-1,-1,-1,-1,-1,-1,-1,-1,-1,-1,-1,-1,-1,-1,-1,-1,-1,-1,-1,-1,-1,-1,-1,-1,-1,-1,-1],"loss_changes":[3.770468E3,4.7388403E2,2.849104E2,2.3169406E2,8.776782E1,5.9037857E1,2.582373E1,1.8393333E2,1.7323837E1,6.2558594E1,2.4548521E1,3.259471E1,2.3045519E1,2.1651947E1,1.4769043E1,9.415451E1,1.6081306E1,1.5504646E1,3.0213318E0,5.6838623E1,1.8123413E1,1.812043E1,2.541995E0,1.4756142E1,2.2917336E1,2.1934902E1,3.459403E0,1.4757965E1,2.6161827E1,2.1208496E0,4.1706324E0,4.187127E1,1.7273206E2,2.6480713E0,7.9901133E0,1.0944515E1,4.846881E0,0E0,2.5386505E0,6.9311035E1,1.2494373E1,1.4568665E1,7.825863E0,9.579818E0,4.046238E0,8.016386E-1,0E0,8.868057E0,0E0,1.6772802E1,1.9070715E1,0E0,6.5028915E0,1.4823551E0,0E0,9.116821E0,9.483091E0,0E0,2.1430416E0,1.3522949E0,3.426326E0,0E0,0E0,0E0,0E0,0E0,0E0,0E0,0E0,0E0,0E0,0E0,0E0,0E0,0E0,0E0,0E0,0E0,0E0,0E0,0E0,0E0,0E0,0E0,0E0,0E0,0E0,0E0,0E0,0E0,0E0,0E0,0E0,0E0,0E0,0E0,0E0,0E0,0E0,0E0,0E0,0E0,0E0,0E0,0E0,0E0,0E0,0E0,0E0,0E0,0E0],"parents":[2147483647,0,0,1,1,2,2,3,3,4,4,5,5,6,6,7,7,8,8,9,9,10,10,11,11,12,12,13,13,14,14,15,15,16,16,17,17,18,18,19,19,20,20,21,21,22,22,23,23,24,24,25,25,26,26,27,27,28,28,29,29,30,30,31,31,32,32,33,33,34,34,35,35,36,36,38,38,39,39,40,40,41,41,42,42,43,43,44,44,45,45,47,47,49,49,50,50,52,52,53,53,55,55,56,56,58,58,59,59,60,60],"right_children":[2,4,6,8,10,12,14,16,18,20,22,24,26,28,30,32,34,36,38,40,42,44,46,48,50,52,54,56,58,60,62,64,66,68,70,72,74,-1,76,78,80,82,84,86,88,90,-1,92,-1,94,96,-1,98,100,-1,102,104,-1,106,108,110,-1,-1,-1,-1,-1,-1,-1,-1,-1,-1,-1,-1,-1,-1,-1,-1,-1,-1,-1,-1,-1,-1,-1,-1,-1,-1,-1,-1,-1,-1,-1,-1,-1,-1,-1,-1,-1,-1,-1,-1,-1,-1,-1,-1,-1,-1,-1,-1,-1,-1],"split_conditions":[3.2638784E-2,-2.4581407E-1,-6.3361156E-1,7.4379855E-1,6.6650194E-1,-6.272621E-1,9.114938E-1,2.9657835E-1,-2.9492235E-1,3.940384E-1,1.5663335E-1,-6.4756477E-1,9.114938E-1,1.4067206E0,2.7163992E0,-5.7866096E-1,7.9012895E-1,1.373215E-2,-1.3168222E0,3.4908135E0,5.078468E0,-2.9973367E-1,2.678465E0,2.270074E0,-9.054778E-1,8.5091126E-1,2.566051E-1,1.5524136E-1,8.018629E-1,2.638924E0,-3.8032767E-1,-3.1367794E-1,-5.201284E-1,-1.2406578E0,-6.8800473E-1,-6.1846906E-1,6.6650194E-1,5.7034814E-3,-8.93709E-2,4.818331E-1,1.7920905E0,-8.749911E-1,7.113682E-1,7.9519093E-1,-2.9651728E-1,-1.5942541E-1,2.0879878E-2,-1.4017107E-1,-4.1533357E-1,-6.876905E-1,9.114938E-1,3.3796924E-1,7.4534893E-1,-6.7326593E-1,-1.461517E-1,6.6650194E-1,7.604626E-1,3.6604688E-1,1.2654473E0,3.4118645E0,-2.7516894E-2,1.6798946E-1,-3.580073E-1,-1.3709363E-1,2.0938916E-2,-9.392407E-2,-3.679441E-1,-2.0568414E-2,4.2018119E-1,2.7957463E-1,-4.49999E-1,-2.8567439E-2,2.5840622E-1,-4.8878652E-1,1.21784166E-1,4.0131968E-1,1.888843E-1,-2.2751653E-1,-3.6295497E-1,1.8356322E-1,-1.6609862E-1,-2.8054756E-1,-4.768693E-1,1.9241178E-1,-4.0898266E-1,1.1558548E-1,-3.078684E-1,-7.306134E-2,4.0281454E-1,-9.8940045E-2,-4.8184252E-1,2.551122E-1,-2.2333711E-1,-3.9779335E-1,2.8830957E-1,2.035319E-2,3.5033798E-1,-3.9914206E-1,1.1000671E-1,1.8463599E-2,3.7803638E-1,3.0287227E-1,4.1398123E-1,3.4762347E-1,-1.7010833E-1,-5.401903E-1,-1.2755997E-1,4.1781232E-1,1.1827274E-1,2.938506E-1,-1.6631943E-1],"split_indices":[5,24,6,8,9,23,5,6,19,18,22,9,5,0,2,11,0,16,10,12,16,20,15,2,4,5,15,18,5,21,24,21,0,4,12,16,9,0,18,0,0,5,3,14,19,18,0,18,0,7,5,0,10,12,0,9,5,0,7,20,20,0,0,0,0,0,0,0,0,0,0,0,0,0,0,0,0,0,0,0,0,0,0,0,0,0,0,0,0,0,0,0,0,0,0,0,0,0,0,0,0,0,0,0,0,0,0,0,0,0,0],"split_type":[0,0,0,0,0,0,0,0,0,0,0,0,0,0,0,0,0,0,0,0,0,0,0,0,0,0,0,0,0,0,0,0,0,0,0,0,0,0,0,0,0,0,0,0,0,0,0,0,0,0,0,0,0,0,0,0,0,0,0,0,0,0,0,0,0,0,0,0,0,0,0,0,0,0,0,0,0,0,0,0,0,0,0,0,0,0,0,0,0,0,0,0,0,0,0,0,0,0,0,0,0,0,0,0,0,0,0,0,0,0,0],"sum_hessian":[5.574479E3,3.6362524E3,1.9382264E3,1.8383615E3,1.7978909E3,3.2633618E2,1.6118901E3,1.6766364E3,1.617252E2,1.7470741E3,5.081685E1,2.771688E2,4.916741E1,3.4603915E2,1.2658511E3,1.6081565E3,6.847986E1,8.1162285E1,8.056291E1,1.4780902E3,2.6898392E2,4.3275635E1,7.541211E0,1.5342245E2,1.2374632E2,4.137299E1,7.794421E0,3.3312167E2,1.2917461E1,1.2621074E3,3.7435837E0,6.5975916E2,9.483973E2,6.467403E1,3.8058293E0,7.687258E1,4.289707E0,2.0050185E0,7.855789E1,1.437178E3,4.0912167E1,2.6139645E2,7.5874586E0,2.0778105E1,2.249753E1,6.337469E0,1.2037419E0,1.511833E2,2.2391481E0,1.8733019E1,1.05013306E2,3.6044252E0,3.7768562E1,6.6155443E0,1.1788772E0,3.2100122E2,1.2120472E1,6.0510125E0,6.8664484E0,1.2563096E3,5.7979283E0,1.5823216E0,2.161262E0,2.3192375E2,4.278354E2,6.433866E2,3.0501068E2,1.1577796E0,6.3516247E1,1.3738062E0,2.432023E0,1.4513744E1,6.2358833E1,3.128936E0,1.1607713E0,7.023086E1,8.327038E0,8.6753796E2,5.696401E2,2.8439257E1,1.2472909E1,4.674611E1,2.1465036E2,5.866224E0,1.721235E0,1.4879742E1,5.8983636E0,1.4315068E0,2.1066025E1,1.1952727E0,5.1421967E0,1.4834044E2,2.8428636E0,1.5521794E1,3.2112238E0,8.67097E1,1.8303602E1,3.5769802E1,1.9987596E0,1.3631593E0,5.2523847E0,1.9907047E2,1.2193074E2,3.8504977E0,8.269975E0,4.461365E0,2.4050832E0,1.2540045E3,2.305058E0,4.5555153E0,1.2424133E0],"tree_param":{"num_deleted":"0","num_feature":"29","num_nodes":"111","size_leaf_vector":"1"}},{"base_weights":[2.2449736E-2,-4.2100722E-1,9.82743E-1,-1.4777644E-1,-6.8202484E-1,2.2218072E-1,1.1585083E0,-2.5138322E-1,7.9728585E-1,-1.6346559E-1,-8.5602003E-1,5.729816E-1,-1.00856945E-1,8.910155E-1,1.2351635E0,-2.8669378E-1,5.8665967E-1,-4.628534E-1,8.416942E-1,6.562005E-1,-2.6193172E-1,-1.0044065E0,-5.1610315E-1,4.4753042E-1,4.1650835E-1,-2.746649E-1,7.681077E-1,9.959704E-1,3.5124108E-1,1.2412891E0,-3.9134428E-1,-1.1630647E-1,-6.838801E-1,2.9742298E-1,-1.1556228E0,9.7528124E-1,4.5427692E-1,-7.0559233E-1,8.5191125E-1,-7.8608567E-1,-3.908411E-2,-7.339792E-1,-1.2355772E0,-3.9181283E-1,-9.8319924E-1,5.38871E-1,-9.2415607E-1,9.509434E-2,-6.943207E-1,3.8695475E-1,3.7779677E-1,1.0219811E0,-7.271343E-1,3.6412647E-1,-1.9958816E-2,1.2485884E0,8.4547895E-1,1.1799266E-1,-3.3561146E-1,-1.807504E-1,3.4975624E-3,-4.330951E-1,-1.7378797E-1,7.755556E-2,-4.8481512E-1,3.2200032E-1,1.2251462E-1,-2.668598E-1,1.9615087E-1,-3.9689693E-1,7.3587865E-2,-4.1157877E-1,2.9755148E-1,7.016522E-2,-2.7156258E-1,6.499225E-2,-1.571743E-1,-2.568037E-1,6.576315E-1,4.0684226E-3,-3.757581E-1,-1.746361E-1,4.1483037E-2,-3.4023204E-1,8.450245E-2,6.602748E-3,2.2985563E-1,-4.2295578E-1,2.389193E-1,9.3033224E-2,-2.7372006E-1,-2.7109084E-1,1.585077E-1,-1.180627E-1,2.7805027E-1,3.2136807E-1,1.6384943E-1,-3.7549517E-1,1.23713374E-1,-1.425233E-1,3.307746E-1,3.7544343E-1,1.356873E-1,-2.1045662E-1,3.2630226E-1],"categories":[],"categories_nodes":[],"categories_segments":[],"categories_sizes":[],"default_left":[0,0,0,0,0,0,0,0,0,0,0,0,0,0,0,0,0,0,0,0,0,0,0,0,0,0,0,0,0,0,0,0,0,0,0,0,0,0,0,0,0,0,0,0,0,0,0,0,0,0,0,0,0,0,0,0,0,0,0,0,0,0,0,0,0,0,0,0,0,0,0,0,0,0,0,0,0,0,0,0,0,0,0,0,0,0,0,0,0,0,0,0,0,0,0,0,0,0,0,0,0,0,0,0,0],"id":2,"left_children":[1,3,5,7,9,11,13,15,17,19,21,23,25,27,29,31,-1,33,35,37,39,41,43,45,-1,47,49,51,53,55,57,59,61,-1,63,65,67,69,71,73,75,77,79,81,83,85,87,89,91,-1,93,95,97,-1,99,101,103,-1,-1,-1,-1,-1,-1,-1,-1,-1,-1,-1,-1,-1,-1,-1,-1,-1,-1,-1,-1,-1,-1,-1,-1,-1,-1,-1,-1,-1,-1,-1,-1,-1,-1,-1,-1,-1,-1,-1,-1,-1,-1,-1,-1,-1,-1,-1,-1],"loss_changes":[2.20878E3,2.5295422E2,2.187832E2,1.7006798E2,1.635686E2,3.505387E1,2.6185425E1,1.22455444E2,9.994682E0,3.7062748E1,6.7994385E1,1.4537865E1,2.462127E1,1.6645294E1,1.0765625E1,1.0417109E2,0E0,7.682184E0,8.155968E0,1.3741928E1,4.771711E1,5.8138428E1,2.3697815E1,1.6774847E1,0E0,2.1079353E1,5.052231E0,1.1975327E1,1.6154203E1,1.9144287E0,3.0832424E0,6.715083E1,3.589441E1,0E0,3.5797858E0,6.38089E0,1.2508129E1,4.282901E0,1.4916491E1,1.5022202E1,3.5806038E1,1.5818915E2,1.0767273E1,3.3300995E1,1.6834457E1,1.4367874E1,8.208516E0,1.6068453E1,1.6741693E1,0E0,7.553734E0,5.2096863E0,3.0928526E0,0E0,1.9020882E1,1.7520752E0,8.89867E0,0E0,0E0,0E0,0E0,0E0,0E0,0E0,0E0,0E0,0E0,0E0,0E0,0E0,0E0,0E0,0E0,0E0,0E0,0E0,0E0,0E0,0E0,0E0,0E0,0E0,0E0,0E0,0E0,0E0,0E0,0E0,0E0,0E0,0E0,0E0,0E0,0E0,0E0,0E0,0E0,0E0,0E0,0E0,0E0,0E0,0E0,0E0,0E0],"parents":[2147483647,0,0,1,1,2,2,3,3,4,4,5,5,6,6,7,7,8,8,9,9,10,10,11,11,12,12,13,13,14,14,15,15,17,17,18,18,19,19,20,20,21,21,22,22,23,23,25,25,26,26,27,27,28,28,29,29,30,30,31,31,32,32,34,34,35,35,36,36,37,37,38,38,39,39,40,40,41,41,42,42,43,43,44,44,45,45,46,46,47,47,48,48,50,50,51,51,52,52,54,54,55,55,56,56],"right_children":[2,4,6,8,10,12,14,16,18,20,22,24,26,28,30,32,-1,34,36,38,40,42,44,46,-1,48,50,52,54,56,58,60,62,-1,64,66,68,70,72,74,76,78,80,82,84,86,88,90,92,-1,94,96,98,-1,100,102,104,-1,-1,-1,-1,-1,-1,-1,-1,-1,-1,-1,-1,-1,-1,-1,-1,-1,-1,-1,-1,-1,-1,-1,-1,-1,-1,-1,-1,-1,-1,-1,-1,-1,-1,-1,-1,-1,-1,-1,-1,-1,-1,-1,-1,-1,-1,-1,-1],"split_conditions":[3.2638784E-2,-1.347586E-1,-6.3361156E-1,6.561742E-1,-6.46566E-1,-6.164517E-1,9.114938E-1,-2.113801E-1,-1.4338391E0,-7.093478E-1,1.081754E0,-1.3168222E0,9.114938E-1,9.6463285E-2,2.7163992E0,-1.6081506E-1,5.8665967E-1,-1.065422E0,-7.580424E-2,9.663139E-2,-3.1263068E-1,1.4860523E-2,-2.340593E-3,-2.7777156E-1,4.1650835E-1,1.6853137E-1,1.7785854E0,4.1426367E-1,9.047122E-1,8.758452E-1,1.3299769E-1,-2.9303205E-1,-1.5990943E-1,2.9742298E-1,-5.520251E-1,1.4511137E0,-3.043181E-1,-8.4538156E-1,-9.054778E-1,-6.779287E-1,8.6720294E-1,-8.648664E-1,-6.637072E-1,2.7328494E-1,4.7985706E0,-4.614313E-1,-5.154987E-1,1.4837947E0,1.472226E0,3.8695475E-1,-2.9587818E-2,4.4236985E-1,-2.9795843E-1,3.6412647E-1,6.6650194E-1,5.938789E-1,-2.6040858E-1,1.1799266E-1,-3.3561146E-1,-1.807504E-1,3.4975624E-3,-4.330951E-1,-1.7378797E-1,7.755556E-2,-4.8481512E-1,3.2200032E-1,1.2251462E-1,-2.668598E-1,1.9615087E-1,-3.9689693E-1,7.3587865E-2,-4.1157877E-1,2.9755148E-1,7.016522E-2,-2.7156258E-1,6.499225E-2,-1.571743E-1,-2.568037E-1,6.576315E-1,4.0684226E-3,-3.757581E-1,-1.746361E-1,4.1483037E-2,-3.4023204E-1,8.450245E-2,6.602748E-3,2.2985563E-1,-4.2295578E-1,2.389193E-1,9.3033224E-2,-2.7372006E-1,-2.7109084E-1,1.585077E-1,-1.180627E-1,2.7805027E-1,3.2136807E-1,1.6384943E-1,-3.7549517E-1,1.23713374E-1,-1.425233E-1,3.307746E-1,3.7544343E-1,1.356873E-1,-2.1045662E-1,3.2630226E-1],"split_indices":[5,0,6,7,23,10,5,0,4,23,11,10,5,0,2,17,0,2,17,0,21,5,27,24,0,2,5,18,5,24,14,22,17,0,15,2,21,3,4,13,0,5,15,17,20,4,14,0,4,0,4,23,17,0,9,17,19,0,0,0,0,0,0,0,0,0,0,0,0,0,0,0,0,0,0,0,0,0,0,0,0,0,0,0,0,0,0,0,0,0,0,0,0,0,0,0,0,0,0,0,0,0,0,0,0],"split_type":[0,0,0,0,0,0,0,0,0,0,0,0,0,0,0,0,0,0,0,0,0,0,0,0,0,0,0,0,0,0,0,0,0,0,0,0,0,0,0,0,0,0,0,0,0,0,0,0,0,0,0,0,0,0,0,0,0,0,0,0,0,0,0,0,0,0,0,0,0,0,0,0,0,0,0,0,0,0,0,0,0,0,0,0,0,0,0,0,0,0,0,0,0,0,0,0,0,0,0,0,0,0,0,0,0],"sum_hessian":[5.1848E3,3.5472605E3,1.6375393E3,1.7338494E3,1.8134111E3,3.0782013E2,1.3297192E3,1.5632094E3,1.7064E2,4.56083E2,1.3573281E3,1.4719781E2,1.6062231E2,2.9899194E2,1.0307273E3,1.5394484E3,2.3761026E1,5.488028E0,1.6515196E2,4.8305668E1,4.0777734E2,9.435003E2,4.1382785E2,1.2891267E2,1.8285145E1,1.3441992E2,2.6202393E1,2.4961176E2,4.93802E1,1.0270958E3,3.6313777E0,1.078206E3,4.6124234E2,1.6316926E0,3.8563354E0,1.2167818E2,4.347379E1,5.742559E0,4.2563107E1,1.2089528E2,2.8688205E2,4.3675388E2,5.067464E2,3.2830698E2,8.5520874E1,1.21433556E2,7.4791126E0,7.186924E1,6.2550682E1,1.0226981E1,1.5975412E1,2.4630067E2,3.3110778E0,1.4174578E1,3.5205624E1,1.0063821E3,2.0713799E1,1.9678211E0,1.6635565E0,2.2388E2,8.5432605E2,5.4260975E1,4.0698135E2,1.0548944E0,2.801441E0,1.02974045E2,1.8704134E1,5.1741514E0,3.829964E1,3.2445745E0,2.4979844E0,1.9983876E0,4.056472E1,1.2542119E1,1.0835316E2,1.8817947E2,9.870258E1,4.1994733E2,1.6806547E1,6.7867627E0,4.9995966E2,2.415058E2,8.680116E1,7.649761E1,9.023267E0,3.7427853E1,8.400571E1,5.973446E0,1.5056664E0,5.9799263E1,1.206998E1,5.3630417E1,8.920267E0,6.760643E0,9.214769E0,2.2206609E2,2.4234585E1,2.2000077E0,1.1110702E0,2.5459997E1,9.7456255E0,1.0021737E3,4.2083545E0,2.5472085E0,1.816659E1],"tree_param":{"num_deleted":"0","num_feature":"29","num_nodes":"105","size_leaf_vector":"1"}},{"base_weights":[2.5089577E-2,-3.096255E-1,8.641326E-1,-3.639837E-1,6.0263264E-1,1.738384E-1,1.051661E0,-3.9682037E-1,1.0619432E0,2.3865049E-1,1.0489028E0,4.657114E-1,-1.0114102E-1,7.602673E-1,1.1417909E0,-6.620977E-1,-2.5709572E-1,1.1547632E0,-6.6103935E-1,4.519985E-1,-7.110788E-1,1.0886725E0,-2.3793718E-1,5.072803E-1,-3.7804794E-1,-2.586066E-1,1.0334653E0,5.6065553E-1,1.0687559E0,1.1484629E0,-3.378889E-1,-1.6826795E-1,-8.66442E-1,2.1372776E0,-3.5107607E-1,1.2138624E0,-2.986533E-1,9.663962E-2,-3.3311057E-1,-2.8282103E-1,5.6595886E-1,1.4968099E-1,-1.1320723E0,-1.1639534E-2,1.1391008E0,4.308622E-1,4.0892693E-1,-4.5354554E-1,6.978445E-1,1.1358572E0,-6.946234E-2,3.5512835E-1,4.3498164E-1,1.0897168E0,-1.3241163E-1,1.1582673E0,7.5200266E-1,9.7246185E-2,-2.8775486E-1,-2.5231946E-2,-3.093221E-1,-7.89416E-2,-2.7518085E-1,6.629205E-1,4.0311828E-1,-1.0085016E-2,-1.571715E-1,3.2691836E-1,5.29088E-1,1.0375575E-1,-3.9061165E-1,1.8538086E-1,-3.095305E-1,-3.1615567E-1,3.0321157E-1,-4.3641913E-1,-9.840687E-2,2.9747942E-1,-3.07156E-1,3.4781802E-1,-7.063738E-2,1.7645806E-1,-3.6707196E-2,3.8002875E-1,-1.7378497E-1,3.429405E-1,1.16444446E-1,3.6754394E-1,-2.2763101E-2,1.7479022E-1,-4.5025015E-1,3.3207068E-1,-7.6181325E-3,3.492868E-1,1.8690282E-1,-1.3576023E-1,2.8626618E-1],"categories":[],"categories_nodes":[],"categories_segments":[],"categories_sizes":[],"default_left":[0,0,0,0,0,0,0,0,0,0,0,0,0,0,0,0,0,0,0,0,0,0,0,0,0,0,0,0,0,0,0,0,0,0,0,0,0,0,0,0,0,0,0,0,0,0,0,0,0,0,0,0,0,0,0,0,0,0,0,0,0,0,0,0,0,0,0,0,0,0,0,0,0,0,0,0,0,0,0,0,0,0,0,0,0,0,0,0,0,0,0,0,0,0,0,0,0],"id":3,"left_children":[1,3,5,7,9,11,13,15,17,19,21,23,25,27,29,31,33,35,37,39,41,43,-1,45,-1,47,49,51,53,55,57,59,61,63,65,67,-1,-1,-1,69,71,73,75,77,79,81,-1,83,85,87,-1,-1,89,91,-1,93,95,-1,-1,-1,-1,-1,-1,-1,-1,-1,-1,-1,-1,-1,-1,-1,-1,-1,-1,-1,-1,-1,-1,-1,-1,-1,-1,-1,-1,-1,-1,-1,-1,-1,-1,-1,-1,-1,-1,-1,-1],"loss_changes":[1.3434415E3,1.6979156E2,1.7640271E2,1.5156015E2,3.1047234E1,2.3532051E1,2.7299316E1,1.16808044E2,1.2427116E1,2.208668E1,7.18264E0,1.0835682E1,2.7332514E1,1.5186829E1,8.455322E0,1.0966226E2,4.662798E2,1.0049049E1,2.2855897E0,7.556427E0,7.4505196E0,4.7218094E0,0E0,8.53561E0,0E0,2.5268456E1,2.6802483E0,1.1838127E1,3.6339798E0,2.2919922E0,2.1375022E0,2.3130415E1,2.3352905E1,1.5314331E0,1.092496E2,2.7295074E0,0E0,0E0,0E0,8.476177E0,7.0154114E0,8.819228E0,3.0536957E0,5.7968006E0,2.5365295E0,1.1345476E1,0E0,2.4911592E1,2.7352486E0,1.9792366E0,0E0,0E0,3.884772E1,1.9163971E0,0E0,1.828125E0,5.9094677E0,0E0,0E0,0E0,0E0,0E0,0E0,0E0,0E0,0E0,0E0,0E0,0E0,0E0,0E0,0E0,0E0,0E0,0E0,0E0,0E0,0E0,0E0,0E0,0E0,0E0,0E0,0E0,0E0,0E0,0E0,0E0,0E0,0E0,0E0,0E0,0E0,0E0,0E0,0E0,0E0],"parents":[2147483647,0,0,1,1,2,2,3,3,4,4,5,5,6,6,7,7,8,8,9,9,10,10,11,11,12,12,13,13,14,14,15,15,16,16,17,17,18,18,19,19,20,20,21,21,23,23,25,25,26,26,27,27,28,28,29,29,30,30,31,31,32,32,33,33,34,34,35,35,39,39,40,40,41,41,42,42,43,43,44,44,45,45,47,47,48,48,49,49,52,52,53,53,55,55,56,56],"right_children":[2,4,6,8,10,12,14,16,18,20,22,24,26,28,30,32,34,36,38,40,42,44,-1,46,-1,48,50,52,54,56,58,60,62,64,66,68,-1,-1,-1,70,72,74,76,78,80,82,-1,84,86,88,-1,-1,90,92,-1,94,96,-1,-1,-1,-1,-1,-1,-1,-1,-1,-1,-1,-1,-1,-1,-1,-1,-1,-1,-1,-1,-1,-1,-1,-1,-1,-1,-1,-1,-1,-1,-1,-1,-1,-1,-1,-1,-1,-1,-1,-1],"split_conditions":[3.2638784E-2,7.4379855E-1,-6.3361156E-1,2.9657835E-1,-2.906772E-1,-6.6659874E-1,9.114938E-1,-1.065422E0,1.4067206E0,-5.1827934E-2,2.4615148E-1,2.270074E0,7.4379855E-1,1.4033436E0,2.7163992E0,-6.304156E-1,1.8582825E-1,6.56485E-1,-6.8317145E-1,-3.063717E-1,1.8582825E-1,-4.7416735E-1,-2.3793718E-1,-1.2222667E0,-3.7804794E-1,9.114938E-1,-5.9969324E-1,9.047122E-1,1.2525728E0,6.9533485E-1,1.3299769E-1,-6.907616E-2,-9.0549827E-1,6.561742E-1,-6.7427635E-1,-1.2640129E-1,-2.986533E-1,9.663962E-2,-3.3311057E-1,-4.6300974E-1,6.56485E-1,4.7300625E-1,8.760096E-1,-6.335777E-1,5.5998433E-2,-6.164517E-1,4.0892693E-1,8.018629E-1,1.7785854E0,2.5102642E0,-6.946234E-2,3.5512835E-1,1.7107452E-1,6.4943117E-1,-1.3241163E-1,2.5483103E0,-2.6040858E-1,9.7246185E-2,-2.8775486E-1,-2.5231946E-2,-3.093221E-1,-7.89416E-2,-2.7518085E-1,6.629205E-1,4.0311828E-1,-1.0085016E-2,-1.571715E-1,3.2691836E-1,5.29088E-1,1.0375575E-1,-3.9061165E-1,1.8538086E-1,-3.095305E-1,-3.1615567E-1,3.0321157E-1,-4.3641913E-1,-9.840687E-2,2.9747942E-1,-3.07156E-1,3.4781802E-1,-7.063738E-2,1.7645806E-1,-3.6707196E-2,3.8002875E-1,-1.7378497E-1,3.429405E-1,1.16444446E-1,3.6754394E-1,-2.2763101E-2,1.7479022E-1,-4.5025015E-1,3.3207068E-1,-7.6181325E-3,3.492868E-1,1.8690282E-1,-1.3576023E-1,2.8626618E-1],"split_indices":[5,8,6,6,19,8,5,2,0,11,22,2,8,8,2,23,2,24,12,20,2,10,0,8,0,5,23,5,0,24,14,18,0,7,0,24,0,0,0,24,24,15,15,13,27,10,0,5,5,7,0,0,24,20,0,4,19,0,0,0,0,0,0,0,0,0,0,0,0,0,0,0,0,0,0,0,0,0,0,0,0,0,0,0,0,0,0,0,0,0,0,0,0,0,0,0,0],"split_type":[0,0,0,0,0,0,0,0,0,0,0,0,0,0,0,0,0,0,0,0,0,0,0,0,0,0,0,0,0,0,0,0,0,0,0,0,0,0,0,0,0,0,0,0,0,0,0,0,0,0,0,0,0,0,0,0,0,0,0,0,0,0,0,0,0,0,0,0,0,0,0,0,0,0,0,0,0,0,0,0,0,0,0,0,0,0,0,0,0,0,0,0,0,0,0,0,0],"sum_hessian":[4.781696E3,3.418573E3,1.3631226E3,3.2268948E3,1.9167813E2,2.916143E2,1.0715083E3,3.1549631E3,7.1931725E1,1.06417656E2,8.5260475E1,1.4112527E2,1.5048903E2,2.5535847E2,8.1614984E2,1.0871644E3,2.0677986E3,6.856766E1,3.36407E0,8.7324974E1,1.9092682E1,8.385892E1,1.4015512E0,1.3849557E2,2.6296942E0,1.3282681E2,1.766221E1,1.5674918E2,9.860931E1,8.127091E2,3.4407399E0,3.1872928E2,7.6843524E2,7.727564E1,1.9905231E3,6.715736E1,1.410304E0,1.1439936E0,2.2200763E0,1.1525631E1,7.579935E1,6.482688E0,1.2609994E1,3.7086098E0,8.0150314E1,1.285228E2,9.972776E0,1.1077503E2,2.205179E1,1.6434097E1,1.2281134E0,2.4895432E1,1.3185374E2,9.7533905E1,1.0754011E0,7.912209E2,2.1488205E1,1.8972813E0,1.5434586E0,2.9140222E2,2.7327044E1,6.0189075E1,7.0824615E2,6.917482E1,8.100822E0,7.020898E2,1.2884332E3,5.7219566E1,9.937785E0,7.5372043E0,3.988427E0,7.400505E1,1.7942948E0,2.6102076E0,3.8724802E0,8.421331E0,4.1886625E0,1.8727922E0,1.8358177E0,7.913853E1,1.0117842E0,1.0001585E2,2.8506952E1,6.9270053E0,1.0384802E2,7.941756E0,1.4110035E1,1.5295918E1,1.1381795E0,1.2315894E2,8.6948E0,9.606082E1,1.4730773E0,7.8125604E2,9.964831E0,2.9109433E0,1.8577261E1],"tree_param":{"num_deleted":"0","num_feature":"29","num_nodes":"97","size_leaf_vector":"1"}},{"base_weights":[2.672011E-2,-2.276283E-1,7.6514E-1,-1.1150319E-1,-5.2847046E-1,1.3998412E-1,9.659983E-1,-1.4041944E-1,8.8708E-1,-1.2323327E0,-4.5767364E-1,-7.338489E-2,4.5704842E-1,6.445258E-1,1.0755438E0,-1.826727E-1,5.785057E-1,1.8305081E-1,1.0501744E0,2.027329E-1,-1.2716233E0,-2.1424276E-1,-7.202887E-1,4.937754E-3,-1.1314063E0,6.58221E-1,-4.1484073E-2,4.600673E-1,1.021506E0,1.0830035E0,-2.976215E-1,1.2163679E-2,-3.2456648E-1,3.4287554E-1,8.514849E-1,7.245008E-1,-4.270252E-1,1.1061208E0,-2.5143218E-1,-1.3046327E0,-1.7158309E-1,-6.042838E-1,-4.5317754E-2,-8.6288303E-1,2.5105156E-2,9.111734E-2,-8.477092E-1,-3.9208576E-1,-4.4367768E-2,7.140171E-1,-7.881493E-1,4.770436E-1,-6.0211533E-1,6.426155E-1,4.04654E-2,1.0894037E0,-2.7596077E-1,1.0950166E0,6.447162E-1,1.1133113E-1,-2.2416084E-1,-1.9918073E-2,6.146873E-1,-3.6627558E-1,-7.238019E-2,1.3763075E-1,-3.308407E-1,2.8275362E-1,3.6660563E-2,3.19926E-1,-2.1610937E-1,1.5421894E-1,-3.9738938E-1,3.4818792E-1,-2.1388391E-2,-3.9817435E-1,-2.3131313E-2,1.7536294E-1,-2.377168E-1,-2.0127259E-1,1.5361921E-1,6.0601383E-1,-2.9679446E-2,-1.2910308E-1,-2.8839445E-1,-1.8706019E-1,1.328298E-1,2.64849E-1,4.1109635E-3,-3.884319E-1,3.612485E-2,1.8552807E-1,3.9932078E-1,-2.9044157E-1,-5.8105204E-2,3.2327732E-1,-2.576799E-1,-3.5328162E-1,1.4493492E-1,2.1836618E-1,8.113307E-3,3.1561744E-1,-7.853351E-2,2.0057635E-2,3.3511198E-1,-2.6070106E-1,2.1878049E-1,3.3071563E-1,1.5680999E-1,-1.5193042E-1,2.4646384E-1],"categories":[],"categories_nodes":[],"categories_segments":[],"categories_sizes":[],"default_left":[0,0,0,0,0,0,0,0,0,0,0,0,0,0,0,0,0,0,0,0,0,0,0,0,0,0,0,0,0,0,0,0,0,0,0,0,0,0,0,0,0,0,0,0,0,0,0,0,0,0,0,0,0,0,0,0,0,0,0,0,0,0,0,0,0,0,0,0,0,0,0,0,0,0,0,0,0,0,0,0,0,0,0,0,0,0,0,0,0,0,0,0,0,0,0,0,0,0,0,0,0,0,0,0,0,0,0,0,0,0,0],"id":4,"left_children":[1,3,5,7,9,11,13,15,17,19,21,23,25,27,29,31,33,35,37,-1,39,41,43,45,47,49,51,53,55,57,59,61,63,65,67,69,71,73,-1,75,77,79,81,83,85,87,89,-1,-1,91,93,95,97,99,101,103,105,107,109,-1,-1,-1,-1,-1,-1,-1,-1,-1,-1,-1,-1,-1,-1,-1,-1,-1,-1,-1,-1,-1,-1,-1,-1,-1,-1,-1,-1,-1,-1,-1,-1,-1,-1,-1,-1,-1,-1,-1,-1,-1,-1,-1,-1,-1,-1,-1,-1,-1,-1,-1,-1],"loss_changes":[8.298358E2,1.1475398E2,1.4200464E2,6.862934E1,4.5031754E1,1.8734331E1,2.9470825E1,7.017113E1,7.4897346E0,7.0843277E0,5.309645E1,1.3769391E1,1.1192963E1,1.484156E1,6.8511963E0,6.025186E1,7.9590645E0,4.8660855E0,6.643158E0,0E0,2.7429504E0,2.8548E1,4.2566345E1,1.1513977E1,1.7840033E0,6.969055E0,9.865886E0,1.1438213E1,6.601532E0,2.6328735E0,1.5484908E0,1.4722464E2,9.385721E1,1.2321575E1,3.7851982E0,4.5619326E0,6.6915197E0,3.4829102E0,0E0,2.0955505E0,2.12101E0,1.0085888E1,3.383039E1,1.3892792E1,1.7952549E1,8.706879E0,6.3816204E0,0E0,0E0,3.716175E0,1.7883396E-1,1.5107107E1,1.0732851E1,5.451294E0,1.4474533E1,1.8517151E0,3.2297466E0,2.020691E0,4.354705E0,0E0,0E0,0E0,0E0,0E0,0E0,0E0,0E0,0E0,0E0,0E0,0E0,0E0,0E0,0E0,0E0,0E0,0E0,0E0,0E0,0E0,0E0,0E0,0E0,0E0,0E0,0E0,0E0,0E0,0E0,0E0,0E0,0E0,0E0,0E0,0E0,0E0,0E0,0E0,0E0,0E0,0E0,0E0,0E0,0E0,0E0,0E0,0E0,0E0,0E0,0E0,0E0],"parents":[2147483647,0,0,1,1,2,2,3,3,4,4,5,5,6,6,7,7,8,8,9,9,10,10,11,11,12,12,13,13,14,14,15,15,16,16,17,17,18,18,20,20,21,21,22,22,23,23,24,24,25,25,26,26,27,27,28,28,29,29,30,30,31,31,32,32,33,33,34,34,35,35,36,36,37,37,39,39,40,40,41,41,42,42,43,43,44,44,45,45,46,46,49,49,50,50,51,51,52,52,53,53,54,54,55,55,56,56,57,57,58,58],"right_children":[2,4,6,8,10,12,14,16,18,20,22,24,26,28,30,32,34,36,38,-1,40,42,44,46,48,50,52,54,56,58,60,62,64,66,68,70,72,74,-1,76,78,80,82,84,86,88,90,-1,-1,92,94,96,98,100,102,104,106,108,110,-1,-1,-1,-1,-1,-1,-1,-1,-1,-1,-1,-1,-1,-1,-1,-1,-1,-1,-1,-1,-1,-1,-1,-1,-1,-1,-1,-1,-1,-1,-1,-1,-1,-1,-1,-1,-1,-1,-1,-1,-1,-1,-1,-1,-1,-1,-1,-1,-1,-1,-1,-1],"split_conditions":[3.2638784E-2,-4.033281E-2,-6.3361156E-1,2.9657835E-1,-3.859135E-2,1.8803005E-1,9.114938E-1,7.4379855E-1,-2.9651728E-1,-6.8206125E-1,1.770291E-1,-4.660334E-1,-2.2318405E-1,6.6650194E-1,2.7163992E0,2.5313738E-1,-2.9492235E-1,8.027976E-1,6.56485E-1,2.027329E-1,1.0410516E0,-5.681142E-1,2.9066026E0,1.4184295E0,-5.635029E-1,-5.959092E-1,8.152206E-1,-2.8890654E-1,5.4870103E-2,6.9533485E-1,-3.8032767E-1,-4.7416735E-1,-2.9303205E-1,3.6241446E-2,-8.93709E-2,-2.4800494E-1,-3.5719746E-1,9.4427687E-1,-2.5143218E-1,1.6406224E0,3.3898002E-1,7.4534893E-1,-4.866858E-1,-6.362131E-1,-1.221285E0,-6.533864E-1,-6.7913896E-1,-3.9208576E-1,-4.4367768E-2,-6.1466706E-1,-1.8298076E-1,4.7783753E-1,-2.3395914E-1,-1.248768E-1,9.047122E-1,-6.344139E-1,5.120634E-1,2.5483103E0,-2.9651728E-1,1.1133113E-1,-2.2416084E-1,-1.9918073E-2,6.146873E-1,-3.6627558E-1,-7.238019E-2,1.3763075E-1,-3.308407E-1,2.8275362E-1,3.6660563E-2,3.19926E-1,-2.1610937E-1,1.5421894E-1,-3.9738938E-1,3.4818792E-1,-2.1388391E-2,-3.9817435E-1,-2.3131313E-2,1.7536294E-1,-2.377168E-1,-2.0127259E-1,1.5361921E-1,6.0601383E-1,-2.9679446E-2,-1.2910308E-1,-2.8839445E-1,-1.8706019E-1,1.328298E-1,2.64849E-1,4.1109635E-3,-3.884319E-1,3.612485E-2,1.8552807E-1,3.9932078E-1,-2.9044157E-1,-5.8105204E-2,3.2327732E-1,-2.576799E-1,-3.5328162E-1,1.4493492E-1,2.1836618E-1,8.113307E-3,3.1561744E-1,-7.853351E-2,2.0057635E-2,3.3511198E-1,-2.6070106E-1,2.1878049E-1,3.3071563E-1,1.5680999E-1,-1.5193042E-1,2.4646384E-1],"split_indices":[5,18,6,6,18,4,5,8,19,11,18,23,18,9,2,10,19,1,24,0,19,4,23,2,11,23,4,0,18,24,24,10,22,16,18,21,0,0,0,23,11,10,4,11,1,16,12,0,0,16,19,0,21,22,5,23,4,4,19,0,0,0,0,0,0,0,0,0,0,0,0,0,0,0,0,0,0,0,0,0,0,0,0,0,0,0,0,0,0,0,0,0,0,0,0,0,0,0,0,0,0,0,0,0,0,0,0,0,0,0,0],"split_type":[0,0,0,0,0,0,0,0,0,0,0,0,0,0,0,0,0,0,0,0,0,0,0,0,0,0,0,0,0,0,0,0,0,0,0,0,0,0,0,0,0,0,0,0,0,0,0,0,0,0,0,0,0,0,0,0,0,0,0,0,0,0,0,0,0,0,0,0,0,0,0,0,0,0,0,0,0,0,0,0,0,0,0,0,0,0,0,0,0,0,0,0,0,0,0,0,0,0,0,0,0,0,0,0,0,0,0,0,0,0,0],"sum_hessian":[4.416419E3,3.2854417E3,1.1309773E3,2.3714373E3,9.1400446E2,2.7542755E2,8.5554974E2,2.3055347E3,6.590261E1,8.203231E1,8.319721E2,1.6509506E2,1.1033248E2,2.1919183E2,6.363579E2,2.178258E3,1.2727647E2,1.2794587E1,5.3108025E1,1.3282384E0,8.070407E1,4.326984E2,3.9927374E2,1.546426E2,1.0452466E1,7.838251E1,3.1949976E1,1.4866809E2,7.052374E1,6.3312964E2,3.2282276E0,9.182754E2,1.2599828E3,6.952228E1,5.7754192E1,6.679177E0,6.11541E0,5.1982105E1,1.1259192E0,7.817233E1,2.5317354E0,1.2998682E2,3.0271158E2,3.350255E2,6.424822E1,1.4125833E2,1.3384267E1,8.590329E0,1.8621367E0,7.595862E1,2.4238875E0,1.667571E1,1.5274264E1,1.0322742E2,4.5440678E1,6.716907E1,3.3546715E0,6.1478064E2,1.8349014E1,1.3679866E0,1.8602412E0,8.851051E2,3.3170284E1,1.05974335E2,1.1540084E3,6.4994606E1,4.52767E0,5.108546E1,6.6687293E0,5.6128516E0,1.066325E0,3.1939902E0,2.9214199E0,4.9695816E1,2.2862892E0,7.667843E1,1.4939047E0,1.167799E0,1.3639365E0,1.2304252E2,6.9442935E0,6.7311077E0,2.9598047E2,6.3103085E1,2.7192242E2,2.497242E1,3.92758E1,1.1655347E1,1.2960298E2,8.925308E0,4.458958E0,6.750357E1,8.455045E0,1.3780586E0,1.0458289E0,1.1637731E1,5.0379806E0,9.92565E0,5.3486147E0,9.0507454E1,1.2719958E1,9.882772E0,3.5557903E1,1.8575714E0,6.53115E1,2.1951454E0,1.1595261E0,6.060514E2,8.729256E0,2.195099E0,1.6153913E1],"tree_param":{"num_deleted":"0","num_feature":"29","num_nodes":"111","size_leaf_vector":"1"}},{"base_weights":[2.5977753E-2,-1.13900036E-1,1.0019939E0,-1.6612759E-1,6.8326455E-1,4.7885904E-1,1.029818E0,-1.3317853E-2,-3.6703327E-1,1.8534315E0,5.7188445E-1,6.3212895E-1,-3.2679495E-1,1.037304E0,-4.2136365E-1,6.8633244E-3,-1.4294522E0,-9.654943E-1,-3.2059714E-1,6.007531E-1,2.8465655E-1,-3.774706E-1,6.6633123E-1,8.9996845E-1,4.5456197E-2,1.0496981E0,5.7652533E-1,-2.1176805E-1,2.1073913E-2,-3.934777E-2,5.401993E-1,-4.4628558E-1,-4.5996654E-1,-1.0024475E0,4.3026187E-2,-2.8083146E-1,-1.0633594E0,5.143423E-1,-9.0015197E-1,9.0198386E-1,1.882257E-1,-1.7693299E-1,1.0539572E0,-6.413393E-1,6.833061E-1,1.0632535E0,7.026721E-1,8.752865E-1,-8.817153E-1,5.2778397E-2,-4.705707E-2,1.9298702E-1,2.1025144E-2,1.14172325E-1,-3.1136224E-1,-3.1026372E-1,6.351441E-2,2.9041192E-1,-2.7213594E-1,-4.186091E-2,-1.3919818E-1,-3.4145388E-1,-9.983123E-2,3.105924E-1,-2.0933215E-1,-3.884022E-1,1.198024E-1,2.8246084E-1,-2.1604662E-1,-9.893371E-2,1.9319437E-1,-1.959003E-1,1.0875166E-1,2.7730819E-2,3.3451748E-1,6.672701E-2,-3.7010503E-1,5.621062E-3,2.8640607E-1,3.194991E-1,7.920258E-2,2.551277E-1,-2.9118812E-1,2.815519E-1,1.788834E-2,-5.756577E-1,1.715791E-1],"categories":[],"categories_nodes":[],"categories_segments":[],"categories_sizes":[],"default_left":[0,0,0,0,0,0,0,0,0,0,0,0,0,0,0,0,0,0,0,0,0,0,0,0,0,0,0,0,0,0,0,0,0,0,0,0,0,0,0,0,0,0,0,0,0,0,0,0,0,0,0,0,0,0,0,0,0,0,0,0,0,0,0,0,0,0,0,0,0,0,0,0,0,0,0,0,0,0,0,0,0,0,0,0,0,0,0],"id":5,"left_children":[1,3,5,7,9,11,13,15,17,19,21,23,-1,25,27,29,31,33,35,-1,-1,37,39,41,43,45,47,-1,-1,49,51,53,-1,55,57,59,61,63,65,67,69,71,73,75,77,79,81,83,85,-1,-1,-1,-1,-1,-1,-1,-1,-1,-1,-1,-1,-1,-1,-1,-1,-1,-1,-1,-1,-1,-1,-1,-1,-1,-1,-1,-1,-1,-1,-1,-1,-1,-1,-1,-1,-1,-1],"loss_changes":[5.640493E2,1.5057077E2,7.045105E0,1.0414325E2,2.792646E1,7.4240665E0,5.7695923E0,5.5107224E1,4.04178E1,6.4632416E-1,1.8589447E1,4.0698586E0,0E0,2.1853638E0,5.014298E-1,4.6892807E1,2.0798264E0,3.9573593E0,3.9915207E1,0E0,0E0,9.386646E0,2.0828537E1,3.1561384E0,4.4917574E0,1.4855347E0,7.314333E0,0E0,0E0,4.4324387E1,7.307472E0,2.3502283E0,0E0,4.12809E0,4.983627E0,3.3415398E1,3.3835907E0,5.591321E0,6.8914356E0,8.670906E0,1.5037684E1,1.0319482E0,8.258362E-1,2.81801E0,9.3466616E-1,3.5266113E-1,5.9657497E0,6.126261E-1,5.6983776E0,0E0,0E0,0E0,0E0,0E0,0E0,0E0,0E0,0E0,0E0,0E0,0E0,0E0,0E0,0E0,0E0,0E0,0E0,0E0,0E0,0E0,0E0,0E0,0E0,0E0,0E0,0E0,0E0,0E0,0E0,0E0,0E0,0E0,0E0,0E0,0E0,0E0,0E0],"parents":[2147483647,0,0,1,1,2,2,3,3,4,4,5,5,6,6,7,7,8,8,9,9,10,10,11,11,13,13,14,14,15,15,16,16,17,17,18,18,21,21,22,22,23,23,24,24,25,25,26,26,29,29,30,30,31,31,33,33,34,34,35,35,36,36,37,37,38,38,39,39,40,40,41,41,42,42,43,43,44,44,45,45,46,46,47,47,48,48],"right_children":[2,4,6,8,10,12,14,16,18,20,22,24,-1,26,28,30,32,34,36,-1,-1,38,40,42,44,46,48,-1,-1,50,52,54,-1,56,58,60,62,64,66,68,70,72,74,76,78,80,82,84,86,-1,-1,-1,-1,-1,-1,-1,-1,-1,-1,-1,-1,-1,-1,-1,-1,-1,-1,-1,-1,-1,-1,-1,-1,-1,-1,-1,-1,-1,-1,-1,-1,-1,-1,-1,-1,-1,-1],"split_conditions":[9.114938E-1,7.4534893E-1,-6.876905E-1,-1.8046056E-1,1.9923155E0,-5.825428E-1,3.9816847E0,2.7163992E0,-1.8020523E-1,2.9657835E-1,-4.9801368E-1,-2.623582E-1,-3.2679495E-1,2.225543E0,9.305915E-1,6.561742E-1,-9.069235E-3,9.160454E-1,2.5628302E0,6.007531E-1,2.8465655E-1,-3.8394615E-1,-1.3199502E-1,-9.054778E-1,-1.7112789E-1,1.0984248E0,1.4546698E-1,-2.1176805E-1,2.1073913E-2,-6.7497236E-1,1.9389322E-2,-1.2383209E-1,-4.5996654E-1,7.896182E-2,-1.221285E0,-1.28179565E-2,4.30186E0,-1.6698398E-1,3.2638784E-2,8.373468E-2,5.781985E-1,2.093974E-3,-7.0580393E-1,3.48302E-2,-6.765678E-1,4.8437123E0,7.107371E-3,-2.0444624E-2,-1.221285E0,5.2778397E-2,-4.705707E-2,1.9298702E-1,2.1025144E-2,1.14172325E-1,-3.1136224E-1,-3.1026372E-1,6.351441E-2,2.9041192E-1,-2.7213594E-1,-4.186091E-2,-1.3919818E-1,-3.4145388E-1,-9.983123E-2,3.105924E-1,-2.0933215E-1,-3.884022E-1,1.198024E-1,2.8246084E-1,-2.1604662E-1,-9.893371E-2,1.9319437E-1,-1.959003E-1,1.0875166E-1,2.7730819E-2,3.3451748E-1,6.672701E-2,-3.7010503E-1,5.621062E-3,2.8640607E-1,3.194991E-1,7.920258E-2,2.551277E-1,-2.9118812E-1,2.815519E-1,1.788834E-2,-5.756577E-1,1.715791E-1],"split_indices":[5,10,7,20,10,12,2,2,20,6,9,20,0,4,4,7,27,11,0,0,0,3,11,4,22,0,3,0,0,23,0,11,0,27,1,19,15,22,5,24,15,27,23,2,12,22,27,22,1,0,0,0,0,0,0,0,0,0,0,0,0,0,0,0,0,0,0,0,0,0,0,0,0,0,0,0,0,0,0,0,0,0,0,0,0,0,0],"split_type":[0,0,0,0,0,0,0,0,0,0,0,0,0,0,0,0,0,0,0,0,0,0,0,0,0,0,0,0,0,0,0,0,0,0,0,0,0,0,0,0,0,0,0,0,0,0,0,0,0,0,0,0,0,0,0,0,0,0,0,0,0,0,0,0,0,0,0,0,0,0,0,0,0,0,0,0,0,0,0,0,0,0,0,0,0,0,0],"sum_hessian":[4.1296978E3,3.612811E3,5.1688684E2,3.391409E3,2.2140215E2,2.702314E1,4.898637E2,1.9268811E3,1.4645277E3,1.7882874E1,2.0351927E2,2.5160873E1,1.8622652E0,4.8763345E2,2.2302744E0,1.9007883E3,2.6092777E1,1.0402893E2,1.3604988E3,1.4310651E1,3.5722232E0,1.8143982E1,1.8537529E2,1.6907778E1,8.253095E0,4.73616E2,1.4017433E1,1.136576E0,1.0936985E0,1.7500784E3,1.5070998E2,2.9971302E0,2.3095646E1,1.0035774E2,3.6711903E0,1.2926704E3,6.782836E1,6.710427E0,1.1433555E1,1.23578384E2,6.1796906E1,2.0965831E0,1.4811195E1,3.9714375E0,4.2816577E0,4.5382492E2,1.9791082E1,1.1965693E1,2.05174E0,6.177918E2,1.1322866E3,1.2330278E2,2.7407198E1,1.3987691E0,1.5983611E0,9.794356E1,2.414181E0,1.8506548E0,1.8205354E0,7.307316E2,5.619388E2,6.1021236E1,6.8071284E0,4.7952867E0,1.9151398E0,8.773621E0,2.6599343E0,1.2104651E2,2.5318794E0,2.905259E1,3.2744316E1,1.0018796E0,1.0947034E0,1.0350999E0,1.3776095E1,1.8696282E0,2.1018093E0,1.5514474E0,2.73021E0,4.525053E2,1.3196232E0,1.8637173E1,1.1539093E0,1.0965195E1,1.000498E0,1.0106392E0,1.0411007E0],"tree_param":{"num_deleted":"0","num_feature":"29","num_nodes":"87","size_leaf_vector":"1"}},{"base_weights":[2.3522008E-2,-8.256608E-2,9.501834E-1,-1.2084763E-1,6.1359316E-1,3.9933965E-1,9.84128E-1,-3.2454744E-1,-1.7375916E-2,4.7579503E-1,5.232299E-1,6.605032E-1,-3.3702675E-1,9.9451965E-1,-2.638944E-1,-7.59907E-2,-5.5525047E-1,1.6132536E0,-9.113648E-2,5.6211436E-1,-3.2288888E-1,2.2810148E-1,8.47884E-1,2.2346222E-1,-8.2250553E-1,1.0056087E0,2.880394E-1,7.472806E-2,-2.3143183E-1,2.3216328E-1,-2.6592588E-1,-6.1218727E-1,3.8557974E-1,3.8727745E-1,5.1860595E-1,7.021748E-3,-4.1918758E-1,3.949354E-1,9.124837E-1,-4.3427312E-1,2.6868474E-1,9.619495E-1,-1.8621085E-3,-1.2882115E0,3.3602256E-2,1.0169802E0,3.7032774E-1,-1.6663674E-1,7.137801E-1,1.4956166E-1,-2.8451815E-2,-1.8688841E-1,-1.15301395E-2,-2.240218E-1,-8.771167E-2,1.8635777E-1,-3.5313997E-1,9.3815895E-3,-3.5602915E-1,-1.6207962E-1,8.401831E-2,2.3894866E-1,3.8697675E-2,-2.1937557E-1,2.877346E-1,9.791278E-2,-2.8306666E-1,3.1408194E-1,1.7234694E-2,-1.0875617E-1,-4.6766526E-1,3.0822068E-1,1.0300723E-1,-3.796297E-1,2.8430772E-1,2.5760174E-1,1.756606E-2],"categories":[],"categories_nodes":[],"categories_segments":[],"categories_sizes":[],"default_left":[0,0,0,0,0,0,0,0,0,0,0,0,0,0,0,0,0,0,0,0,0,0,0,0,0,0,0,0,0,0,0,0,0,0,0,0,0,0,0,0,0,0,0,0,0,0,0,0,0,0,0,0,0,0,0,0,0,0,0,0,0,0,0,0,0,0,0,0,0,0,0,0,0,0,0,0,0],"id":6,"left_children":[1,3,5,7,9,11,13,15,17,-1,19,21,23,25,27,29,31,33,35,37,-1,39,41,-1,43,45,47,-1,-1,49,51,53,55,-1,-1,57,59,61,63,65,-1,67,-1,69,-1,71,73,-1,75,-1,-1,-1,-1,-1,-1,-1,-1,-1,-1,-1,-1,-1,-1,-1,-1,-1,-1,-1,-1,-1,-1,-1,-1,-1,-1,-1,-1],"loss_changes":[3.853088E2,9.380242E1,7.1351624E0,7.027657E1,1.529248E1,5.040623E0,5.1720886E0,6.4364456E1,2.6623782E2,0E0,1.1139492E1,1.3324213E0,4.405578E0,2.6531677E0,1.2118447E0,3.177472E1,3.143161E1,1.3327179E0,6.818953E1,9.363621E0,0E0,3.5111523E0,1.2500839E0,0E0,2.520447E0,2.2922363E0,2.9844027E0,0E0,0E0,1.8091106E1,2.7241062E1,2.3428085E1,1.3192881E1,0E0,0E0,4.7249203E1,4.1441345E1,1.2087484E1,4.753227E0,1.9418881E0,0E0,8.0638504E-1,0E0,3.679304E-1,0E0,2.1913147E0,8.820139E0,0E0,4.4594526E-1,0E0,0E0,0E0,0E0,0E0,0E0,0E0,0E0,0E0,0E0,0E0,0E0,0E0,0E0,0E0,0E0,0E0,0E0,0E0,0E0,0E0,0E0,0E0,0E0,0E0,0E0,0E0,0E0],"parents":[2147483647,0,0,1,1,2,2,3,3,4,4,5,5,6,6,7,7,8,8,10,10,11,11,12,12,13,13,14,14,15,15,16,16,17,17,18,18,19,19,21,21,22,22,24,24,25,25,26,26,29,29,30,30,31,31,32,32,35,35,36,36,37,37,38,38,39,39,41,41,43,43,45,45,46,46,48,48],"right_children":[2,4,6,8,10,12,14,16,18,-1,20,22,24,26,28,30,32,34,36,38,-1,40,42,-1,44,46,48,-1,-1,50,52,54,56,-1,-1,58,60,62,64,66,-1,68,-1,70,-1,72,74,-1,76,-1,-1,-1,-1,-1,-1,-1,-1,-1,-1,-1,-1,-1,-1,-1,-1,-1,-1,-1,-1,-1,-1,-1,-1,-1,-1,-1,-1],"split_conditions":[9.114938E-1,6.6650194E-1,-6.876905E-1,-1.065422E0,1.9998791E0,-3.2322177E-1,2.7163992E0,-5.4364866E-1,1.8582825E-1,4.7579503E-1,1.4837947E0,-6.85049E-1,1.7689358E0,7.528848E-1,1.3299769E-1,7.210357E-1,6.561742E-1,-3.3108664E-1,-4.006402E-2,2.9657835E-1,-3.2288888E-1,-2.9587818E-2,-2.500576E-1,2.2346222E-1,-2.9587818E-2,2.5483103E0,-1.4712705E-1,7.472806E-2,-2.3143183E-1,-6.774779E-1,-1.3168222E0,6.4551437E-1,1.2525728E0,3.8727745E-1,5.1860595E-1,2.7163992E0,2.4417949E0,1.8582825E-1,-6.4693105E-1,-5.0313747E-1,2.6868474E-1,-6.077359E-1,-1.8621085E-3,-8.019291E-3,3.3602256E-2,5.938789E-1,-5.396411E-1,-1.6663674E-1,7.065616E-1,1.4956166E-1,-2.8451815E-2,-1.8688841E-1,-1.15301395E-2,-2.240218E-1,-8.771167E-2,1.8635777E-1,-3.5313997E-1,9.3815895E-3,-3.5602915E-1,-1.6207962E-1,8.401831E-2,2.3894866E-1,3.8697675E-2,-2.1937557E-1,2.877346E-1,9.791278E-2,-2.8306666E-1,3.1408194E-1,1.7234694E-2,-1.0875617E-1,-4.6766526E-1,3.0822068E-1,1.0300723E-1,-3.796297E-1,2.8430772E-1,2.5760174E-1,1.756606E-2],"split_indices":[5,9,7,2,9,24,2,23,2,0,0,11,5,21,14,1,7,24,17,6,0,4,19,0,4,4,22,0,0,11,10,12,0,0,0,2,11,2,16,2,0,23,0,27,0,17,13,0,20,0,0,0,0,0,0,0,0,0,0,0,0,0,0,0,0,0,0,0,0,0,0,0,0,0,0,0,0],"split_type":[0,0,0,0,0,0,0,0,0,0,0,0,0,0,0,0,0,0,0,0,0,0,0,0,0,0,0,0,0,0,0,0,0,0,0,0,0,0,0,0,0,0,0,0,0,0,0,0,0,0,0,0,0,0,0,0,0,0,0,0,0,0,0,0,0,0,0,0,0,0,0,0,0,0,0,0,0],"sum_hessian":[3.917617E3,3.5160012E3,4.0161572E2,3.3335188E3,1.8248257E2,2.4053116E1,3.775626E2,1.1221866E3,2.211332E3,1.4108733E1,1.6837384E2,1.7831814E1,6.2213016E0,3.746462E2,2.9163728E0,5.40831E2,5.813557E2,9.4796135E1,2.116536E3,1.65011E2,3.3628414E0,6.061516E0,1.1770298E1,1.7614843E0,4.4598174E0,3.6843973E2,6.2065043E0,1.7036606E0,1.2127122E0,2.0614905E2,3.3468195E2,5.4851044E2,3.284524E1,2.8209282E1,6.658685E1,1.62984E3,4.86696E2,1.1314906E2,5.1861946E1,3.217855E0,2.8436608E0,1.0272148E1,1.4981502E0,2.7239017E0,1.7359154E0,3.6137042E2,7.0693097E0,1.9796529E0,4.2268515E0,1.1331685E2,9.283219E1,1.295782E2,2.0510376E2,3.8514E2,1.6337042E2,2.9065481E1,3.7797592E0,1.5983455E3,3.1494526E1,4.150549E2,7.1641106E1,4.4285427E1,6.886363E1,1.0256869E0,5.0836258E1,1.4344895E0,1.7833655E0,9.245893E0,1.0262558E0,1.1455371E0,1.5783646E0,3.5534735E2,6.0230474E0,1.5333533E0,5.5359564E0,3.2071474E0,1.019704E0],"tree_param":{"num_deleted":"0","num_feature":"29","num_nodes":"77","size_leaf_vector":"1"}},{"base_weights":[2.1176232E-2,-5.9747748E-2,9.012637E-1,-9.621358E-2,4.9547154E-1,3.3872792E-1,9.410868E-1,2.1386401E-1,-1.4879872E-1,5.505928E-1,-6.046595E-1,6.7738044E-1,-1.7247565E-1,9.530647E-1,-2.393647E-1,-1.2878345E-1,1.4285933E0,-6.5430504E-1,-9.1184594E-2,6.164335E-1,-3.719276E-1,-9.333653E-1,3.6373603E-1,-1.00799195E-1,8.2520044E-1,2.3518929E-1,-5.5255646E-1,9.7524095E-1,3.965409E-1,6.1898462E-2,-2.0808867E-1,7.119952E-2,-5.8254445E-1,4.727601E-1,1.4970783E0,-9.331625E-1,-3.0607647E-1,1.853692E0,-1.3842148E-1,-8.283424E-1,6.4299846E-1,3.2564676E-1,-1.1472944E0,-2.684351E-2,-1.1142392E0,-1.1477431E-1,3.0238044E-1,9.160661E-1,-2.4181737E-2,2.0597793E-1,-9.6062267E-1,9.9302536E-1,3.7626377E-1,6.401006E-1,-5.65362E-1,-1.1545033E-1,4.9479774E-1,-4.064031E-1,-1.0265309E-1,2.8921884E-1,-6.6802196E-2,1.3056432E-1,4.6318904E-1,-2.8919455E-1,3.1861654E-1,-4.8049245E-2,-3.695511E-1,5.724893E-1,3.3333147E-1,1.6361814E-2,-7.433001E-2,7.512062E-2,-4.4960362E-1,2.4865957E-1,1.3125518E-1,-2.4327163E-1,2.6507875E-1,-5.002647E-1,-5.9908394E-2,-3.7240002E-1,-8.6912185E-2,2.8901858E-2,3.0485106E-1,-4.476626E-1,-3.6387317E-2,3.0002558E-1,-1.5264208E-2,-1.743513E-1,2.7482823E-1,-8.0037415E-2,2.3574233E-1,4.656357E-2,-3.0627033E-1],"categories":[],"categories_nodes":[],"categories_segments":[],"categories_sizes":[],"default_left":[0,0,0,0,0,0,0,0,0,0,0,0,0,0,0,0,0,0,0,0,0,0,0,0,0,0,0,0,0,0,0,0,0,0,0,0,0,0,0,0,0,0,0,0,0,0,0,0,0,0,0,0,0,0,0,0,0,0,0,0,0,0,0,0,0,0,0,0,0,0,0,0,0,0,0,0,0,0,0,0,0,0,0,0,0,0,0,0,0,0,0,0,0],"id":7,"left_children":[1,3,5,7,9,11,13,15,17,19,21,23,25,27,29,31,33,35,37,39,41,43,45,-1,47,-1,49,51,53,-1,-1,55,57,59,61,63,65,67,69,71,73,75,77,-1,79,-1,-1,81,-1,-1,83,85,87,89,91,-1,-1,-1,-1,-1,-1,-1,-1,-1,-1,-1,-1,-1,-1,-1,-1,-1,-1,-1,-1,-1,-1,-1,-1,-1,-1,-1,-1,-1,-1,-1,-1,-1,-1,-1,-1,-1,-1],"loss_changes":[2.651316E2,6.907764E1,6.70372E0,5.221228E1,1.3085014E1,3.9751463E0,4.359497E0,1.9349002E2,7.964635E1,1.2424503E1,3.6851017E0,2.315845E0,3.9513679E0,3.1856384E0,8.991663E-1,3.2996586E1,5.986496E0,2.6888695E1,2.2606467E2,7.739731E0,7.94525E0,1.1408176E0,2.0121064E0,0E0,1.0751715E0,0E0,4.4581995E0,2.5842896E0,3.3553872E0,0E0,0E0,1.8268588E2,2.0175098E1,3.0501242E0,4.055954E0,1.05494995E1,1.6813328E1,2.4578857E-1,5.0663773E1,3.1429367E0,6.701111E0,5.883474E0,3.0444145E0,0E0,3.3258152E-1,0E0,0E0,8.160286E-1,0E0,0E0,2.5264568E0,2.033844E0,5.502951E0,1.6188955E0,1.1801759E0,0E0,0E0,0E0,0E0,0E0,0E0,0E0,0E0,0E0,0E0,0E0,0E0,0E0,0E0,0E0,0E0,0E0,0E0,0E0,0E0,0E0,0E0,0E0,0E0,0E0,0E0,0E0,0E0,0E0,0E0,0E0,0E0,0E0,0E0,0E0,0E0,0E0,0E0],"parents":[2147483647,0,0,1,1,2,2,3,3,4,4,5,5,6,6,7,7,8,8,9,9,10,10,11,11,12,12,13,13,14,14,15,15,16,16,17,17,18,18,19,19,20,20,21,21,22,22,24,24,26,26,27,27,28,28,31,31,32,32,33,33,34,34,35,35,36,36,37,37,38,38,39,39,40,40,41,41,42,42,44,44,47,47,50,50,51,51,52,52,53,53,54,54],"right_children":[2,4,6,8,10,12,14,16,18,20,22,24,26,28,30,32,34,36,38,40,42,44,46,-1,48,-1,50,52,54,-1,-1,56,58,60,62,64,66,68,70,72,74,76,78,-1,80,-1,-1,82,-1,-1,84,86,88,90,92,-1,-1,-1,-1,-1,-1,-1,-1,-1,-1,-1,-1,-1,-1,-1,-1,-1,-1,-1,-1,-1,-1,-1,-1,-1,-1,-1,-1,-1,-1,-1,-1,-1,-1,-1,-1,-1,-1],"split_conditions":[9.114938E-1,2.9657835E-1,-6.876905E-1,-9.0549827E-1,1.4067206E0,-2.623582E-1,2.7163992E0,-1.0519677E0,-9.0228015E-1,1.22104436E-1,2.253161E-1,-7.0580393E-1,1.7689358E0,6.9533485E-1,1.3299769E-1,-1.0596461E0,-2.8683612E-2,-2.1071084E-1,-8.284243E-1,-6.896591E-1,-1.03477135E-1,-4.8613936E-1,1.2654473E0,-1.00799195E-1,-6.258179E-1,2.3518929E-1,-6.701656E-1,2.3086321E0,1.3896263E-2,6.1898462E-2,-2.0808867E-1,-1.136395E0,-4.3205824E-1,-2.184545E-1,-7.0763725E-1,1.2349277E0,3.2298617E-2,7.4379855E-1,-6.311337E-1,-5.2401674E-1,-4.3841234E-1,-4.7416735E-1,1.4465797E0,-2.684351E-2,1.1514916E0,-1.1477431E-1,3.0238044E-1,-9.054778E-1,-2.4181737E-2,2.0597793E-1,-1.9108377E-1,3.7741325E0,-5.1723677E-1,-8.102694E-1,2.4615148E-1,-1.1545033E-1,4.9479774E-1,-4.064031E-1,-1.0265309E-1,2.8921884E-1,-6.6802196E-2,1.3056432E-1,4.6318904E-1,-2.8919455E-1,3.1861654E-1,-4.8049245E-2,-3.695511E-1,5.724893E-1,3.3333147E-1,1.6361814E-2,-7.433001E-2,7.512062E-2,-4.4960362E-1,2.4865957E-1,1.3125518E-1,-2.4327163E-1,2.6507875E-1,-5.002647E-1,-5.9908394E-2,-3.7240002E-1,-8.6912185E-2,2.8901858E-2,3.0485106E-1,-4.476626E-1,-3.6387317E-2,3.0002558E-1,-1.5264208E-2,-1.743513E-1,2.7482823E-1,-8.0037415E-2,2.3574233E-1,4.656357E-2,-3.0627033E-1],"split_indices":[5,6,7,0,0,20,2,0,0,22,22,23,5,24,14,0,27,13,0,12,18,24,7,0,12,0,14,4,27,0,0,0,24,22,23,19,23,8,11,24,11,10,14,0,11,0,0,4,0,0,21,11,12,4,22,0,0,0,0,0,0,0,0,0,0,0,0,0,0,0,0,0,0,0,0,0,0,0,0,0,0,0,0,0,0,0,0,0,0,0,0,0,0],"split_type":[0,0,0,0,0,0,0,0,0,0,0,0,0,0,0,0,0,0,0,0,0,0,0,0,0,0,0,0,0,0,0,0,0,0,0,0,0,0,0,0,0,0,0,0,0,0,0,0,0,0,0,0,0,0,0,0,0,0,0,0,0,0,0,0,0,0,0,0,0,0,0,0,0,0,0,0,0,0,0,0,0,0,0,0,0,0,0,0,0,0,0,0,0],"sum_hessian":[3.7209475E3,3.408471E3,3.1247656E2,3.199181E3,2.092899E2,2.1286888E1,2.9118967E2,4.6342804E2,2.735753E3,1.9977962E2,9.510282E0,1.2608907E1,8.677981E0,2.8845538E2,2.7342813E0,3.6216385E2,1.012642E2,2.788414E2,2.4569116E3,1.8678078E2,1.2998843E1,7.1272335E0,2.3830476E0,1.4430542E0,1.1165853E1,2.165661E0,6.5123205E0,2.7667798E2,1.17774E1,1.655659E0,1.0786225E0,2.5196161E2,1.1020223E2,7.2988367E0,9.396536E1,1.5391127E2,1.2493013E2,5.7351337E1,2.3995603E3,2.827384E0,1.8395338E2,7.1480055E0,5.8508377E0,1.5218022E0,5.6054316E0,1.2921637E0,1.090884E0,1.0137578E1,1.0282744E0,1.4442135E0,5.068107E0,2.6806104E2,8.616953E0,9.664769E0,2.1126308E0,1.9606151E2,5.59001E1,2.5061453E1,8.514078E1,4.050798E0,3.2480385E0,4.4082837E0,8.9557076E1,1.5207903E2,1.8322481E0,1.08933716E2,1.5996415E1,5.1960655E1,5.3906813E0,8.681111E2,1.5314491E3,1.3236852E0,1.5036987E0,9.499368E1,8.895971E1,2.2043455E0,4.94366E0,3.2866364E0,2.5642014E0,4.418811E0,1.1866205E0,1.3168247E0,8.820753E0,2.6266682E0,2.4414387E0,2.66302E2,1.7590226E0,3.079182E0,5.537771E0,1.2228221E0,8.441947E0,1.0736326E0,1.0389984E0],"tree_param":{"num_deleted":"0","num_feature":"29","num_nodes":"93","size_leaf_vector":"1"}},{"base_weights":[2.0361671E-2,-4.1125122E-2,8.5205346E-1,2.3770325E-2,-3.0813083E-1,2.92559E-1,8.978992E-1,-5.229549E-1,6.926572E-2,6.718073E-1,-3.9716E-1,4.3663165E-1,-6.6358787E-1,9.1174406E-1,-2.1915814E-1,-1.387856E0,-3.3100006E-1,2.2617543E0,5.4318886E-2,8.663693E-1,-6.647505E-1,-5.096686E-1,2.9707256E-1,-1.3715254E-1,6.263381E-1,-1.711859E-2,-2.8339836E-1,9.3905264E-1,3.194808E-1,7.481259E-2,-1.665033E-1,-4.733111E-1,-6.213833E-1,1.3050719E-1,-6.77478E-1,5.012219E-1,8.5502917E-1,2.4906239E-1,-7.330762E-2,-3.66651E-1,9.7854525E-1,-3.7423122E-1,1.9291139E-1,-2.646826E-1,-8.607855E-1,4.7264782E-1,-5.6043893E-1,-6.927783E-1,1.6944212E-1,7.6692444E-1,-6.502175E-2,8.488612E-2,9.5567364E-1,5.526951E-1,-4.7789377E-1,-3.289202E-1,2.0324191E-1,2.3234709E-1,-4.0616076E-2,1.8769036E-1,-2.3664096E-1,1.5929061E-1,1.5807003E-2,-3.4999907E-2,1.56268E-1,-2.4747816E-1,3.1480494E-1,2.354104E-1,-8.746293E-2,-9.4967686E-2,7.3760855E-1,-2.6391095E-1,1.851675E-1,-6.623735E-2,1.9464366E-1,1.7841382E-1,-2.1239606E-1,-6.562216E-3,-3.0307746E-1,-7.565169E-5,2.8045732E-1,1.7078479E-1,-2.8748256E-1,2.893341E-1,-1.22182015E-2,-8.976954E-2,2.1261509E-1,-2.654239E-1,5.1511858E-2],"categories":[],"categories_nodes":[],"categories_segments":[],"categories_sizes":[],"default_left":[0,0,0,0,0,0,0,0,0,0,0,0,0,0,0,0,0,0,0,0,0,0,0,0,0,0,0,0,0,0,0,0,0,0,0,0,0,0,0,0,0,0,0,0,0,0,0,0,0,0,0,0,0,0,0,0,0,0,0,0,0,0,0,0,0,0,0,0,0,0,0,0,0,0,0,0,0,0,0,0,0,0,0,0,0,0,0,0,0],"id":8,"left_children":[1,3,5,7,9,11,13,15,17,19,21,23,25,27,29,31,33,35,37,39,41,43,45,47,49,-1,-1,51,53,-1,-1,-1,55,57,59,-1,-1,61,63,-1,65,-1,67,69,71,73,75,77,-1,79,-1,81,83,85,87,-1,-1,-1,-1,-1,-1,-1,-1,-1,-1,-1,-1,-1,-1,-1,-1,-1,-1,-1,-1,-1,-1,-1,-1,-1,-1,-1,-1,-1,-1,-1,-1,-1,-1],"loss_changes":[1.8206401E2,5.7456017E1,6.023926E0,6.640211E1,5.682947E1,3.0510528E0,3.695694E0,3.3589714E1,8.062596E1,1.4714001E1,4.6622475E1,2.0477593E0,4.6123838E-1,3.3143463E0,7.007257E-1,4.3943863E0,2.7136068E1,1.0311737E0,6.0871613E1,1.241666E1,3.976012E0,4.3844696E1,1.2852431E1,2.4579124E0,1.7929459E0,0E0,0E0,2.944336E0,2.3776271E0,0E0,0E0,0E0,6.284715E0,1.2668692E1,1.4532986E1,0E0,0E0,5.364478E1,3.8187164E1,0E0,6.7405624E0,0E0,1.3439738E0,4.3618946E1,6.418167E0,8.687008E0,2.920817E0,7.035322E-1,0E0,1.5441222E0,0E0,3.155453E0,1.8657532E0,1.4425297E0,9.73384E-1,0E0,0E0,0E0,0E0,0E0,0E0,0E0,0E0,0E0,0E0,0E0,0E0,0E0,0E0,0E0,0E0,0E0,0E0,0E0,0E0,0E0,0E0,0E0,0E0,0E0,0E0,0E0,0E0,0E0,0E0,0E0,0E0,0E0,0E0],"parents":[2147483647,0,0,1,1,2,2,3,3,4,4,5,5,6,6,7,7,8,8,9,9,10,10,11,11,12,12,13,13,14,14,15,15,16,16,17,17,18,18,19,19,20,20,21,21,22,22,23,23,24,24,27,27,28,28,32,32,33,33,34,34,37,37,38,38,40,40,42,42,43,43,44,44,45,45,46,46,47,47,49,49,51,51,52,52,53,53,54,54],"right_children":[2,4,6,8,10,12,14,16,18,20,22,24,26,28,30,32,34,36,38,40,42,44,46,48,50,-1,-1,52,54,-1,-1,-1,56,58,60,-1,-1,62,64,-1,66,-1,68,70,72,74,76,78,-1,80,-1,82,84,86,88,-1,-1,-1,-1,-1,-1,-1,-1,-1,-1,-1,-1,-1,-1,-1,-1,-1,-1,-1,-1,-1,-1,-1,-1,-1,-1,-1,-1,-1,-1,-1,-1,-1,-1],"split_conditions":[9.114938E-1,8.6720294E-1,-6.876905E-1,-1.6980102E0,-5.172555E-1,-5.825428E-1,2.7163992E0,-6.680654E-1,-8.749911E-1,-1.2016221E0,2.7493408E0,2.927617E-4,1.1612062E-3,6.9533485E-1,-3.8032767E-1,-5.6332505E-1,-6.598182E-1,-2.4581407E-1,8.027976E-1,-9.054778E-1,-1.2264212E0,1.11736104E-1,2.5628302E0,-1.8211666E-1,6.35981E-1,-1.711859E-2,-2.8339836E-1,-6.6744536E-1,1.3896263E-2,7.481259E-2,-1.665033E-1,-4.733111E-1,4.15569E-1,-5.9623885E-1,-3.6919436E-1,5.012219E-1,8.5502917E-1,8.585573E-1,7.4379855E-1,-3.66651E-1,8.8861424E-1,-3.7423122E-1,-1.4992741E-1,-6.3361156E-1,4.2774663E0,2.9200134E-1,2.6181358E-1,-6.409731E-1,1.6944212E-1,-9.054778E-1,-6.502175E-2,-1.2563385E0,3.7741325E0,-1.4712705E-1,-1.8298076E-1,-3.289202E-1,2.0324191E-1,2.3234709E-1,-4.0616076E-2,1.8769036E-1,-2.3664096E-1,1.5929061E-1,1.5807003E-2,-3.4999907E-2,1.56268E-1,-2.4747816E-1,3.1480494E-1,2.354104E-1,-8.746293E-2,-9.4967686E-2,7.3760855E-1,-2.6391095E-1,1.851675E-1,-6.623735E-2,1.9464366E-1,1.7841382E-1,-2.1239606E-1,-6.562216E-3,-3.0307746E-1,-7.565169E-5,2.8045732E-1,1.7078479E-1,-2.8748256E-1,2.893341E-1,-1.22182015E-2,-8.976954E-2,2.1261509E-1,-2.654239E-1,5.1511858E-2],"split_indices":[5,0,7,5,24,12,2,0,5,6,23,27,27,24,24,16,15,24,1,4,28,6,0,21,0,0,0,14,27,0,0,0,4,4,0,0,0,3,8,0,0,0,4,6,11,17,17,16,0,4,0,9,11,22,19,0,0,0,0,0,0,0,0,0,0,0,0,0,0,0,0,0,0,0,0,0,0,0,0,0,0,0,0,0,0,0,0,0,0],"split_type":[0,0,0,0,0,0,0,0,0,0,0,0,0,0,0,0,0,0,0,0,0,0,0,0,0,0,0,0,0,0,0,0,0,0,0,0,0,0,0,0,0,0,0,0,0,0,0,0,0,0,0,0,0,0,0,0,0,0,0,0,0,0,0,0,0,0,0,0,0,0,0,0,0,0,0,0,0,0,0,0,0,0,0,0,0,0,0,0,0],"sum_hessian":[3.5585598E3,3.3144722E3,2.4408765E2,2.6671382E3,6.4733405E2,1.9045135E1,2.2504251E2,2.0408789E2,2.4630503E3,5.336817E1,5.939659E2,1.7023386E1,2.0217493E0,2.2246902E2,2.5734994E0,3.593655E1,1.6815134E2,1.5659803E1,2.4473904E3,4.6893677E1,6.4744973E0,5.1135983E2,8.260604E1,4.2986774E0,1.2724709E1,1.0211759E0,1.0005733E0,2.1210364E2,1.0365386E1,1.1820123E0,1.391487E0,2.7954184E1,7.982367E0,7.237348E1,9.577785E1,9.727684E0,5.93212E0,9.685468E2,1.4788436E3,1.8859082E0,4.5007767E1,3.5846555E0,2.8898416E0,3.0223456E2,2.0912527E2,6.8939514E1,1.3666533E1,2.4067388E0,1.8919389E0,1.0983496E1,1.7412124E0,4.165059E0,2.0793857E2,8.257196E0,2.1081893E0,5.9589386E0,2.0234284E0,2.0590786E1,5.1782696E1,7.174704E0,8.860314E1,3.9696786E2,5.71579E2,1.3790204E3,9.98232E1,1.2979047E0,4.370986E1,1.0218402E0,1.8680013E0,2.9745227E2,4.782264E0,2.0688213E2,2.2431567E0,1.3914457E1,5.5025055E1,1.2046555E0,1.2461878E1,1.1164134E0,1.2903254E0,2.151806E0,8.83169E0,3.1545172E0,1.010542E0,2.0615546E2,1.7831131E0,1.1360625E0,7.121134E0,1.0737194E0,1.03447E0],"tree_param":{"num_deleted":"0","num_feature":"29","num_nodes":"89","size_leaf_vector":"1"}},{"base_weights":[1.5988665E-2,-3.037244E-2,7.9565686E-1,-5.86949E-2,4.711693E-1,2.5089636E-1,8.5520416E-1,-4.746957E-2,-1.1292428E0,4.8101848E-1,3.618735E-1,2.7210265E-1,-3.9685108E-2,8.925558E-1,1.9760644E-1,4.747672E-2,-1.7238322E-1,-3.6278823E-1,1.5103741E-1,4.0851924E-1,-3.291008E-1,-3.699241E-1,3.682489E-1,9.099908E-1,-1.8790993E-1,2.3843141E-1,-1.1742016E-1,-2.0806183E-1,1.8752941E-1,-6.5619E-1,-1.3240695E-1,7.015586E-1,1.7225997E-1,1.04825236E-1,-1.1542276E0,5.600103E-1,-1.1534868E-1,9.350297E-1,2.2521707E-1,6.4303406E-2,-1.437958E-1,-5.70413E-1,2.2017899E-1,1.1643511E-2,-1.675655E-1,1.7236143E-1,2.6459565E-2,-8.818075E-2,-2.7052534E-1,-9.862931E-2,-6.084004E-3,2.4527724E-1,-1.3573018E-1,-8.272877E-2,1.8872395E-1,-1.962662E-1,1.3926834E-1,-1.1157316E-1,-4.3422464E-1,2.5350702E-1,-3.8608372E-2,2.839474E-1,-1.9187827E-2,-1.7843366E-1,2.4863537E-1,1.08907625E-1,-4.7963682E-1],"categories":[],"categories_nodes":[],"categories_segments":[],"categories_sizes":[],"default_left":[0,0,0,0,0,0,0,0,0,0,0,0,0,0,0,0,0,0,0,0,0,0,0,0,0,0,0,0,0,0,0,0,0,0,0,0,0,0,0,0,0,0,0,0,0,0,0,0,0,0,0,0,0,0,0,0,0,0,0,0,0,0,0,0,0,0,0],"id":9,"left_children":[1,3,5,7,9,11,13,15,17,-1,19,-1,21,23,25,27,29,-1,-1,31,-1,33,35,37,39,-1,41,43,45,47,49,51,53,55,57,59,-1,61,63,-1,-1,65,-1,-1,-1,-1,-1,-1,-1,-1,-1,-1,-1,-1,-1,-1,-1,-1,-1,-1,-1,-1,-1,-1,-1,-1,-1],"loss_changes":[1.2445458E2,4.6195972E1,6.0540466E0,3.6927444E1,2.093201E1,3.9361997E0,4.0922165E0,3.6139244E1,4.776703E0,0E0,1.1324463E1,0E0,2.1752703E0,3.2634735E0,2.092102E0,6.2011826E1,2.5362083E1,0E0,0E0,1.0652134E1,0E0,3.421249E0,1.2650937E0,2.5623474E0,5.054842E-1,0E0,3.4371035E0,5.3108124E1,4.2969505E1,8.64592E0,2.678015E1,9.626499E0,1.807634E1,2.0600178E0,2.473507E-1,1.3263555E0,0E0,1.8433533E0,3.9684002E0,0E0,0E0,6.024416E0,0E0,0E0,0E0,0E0,0E0,0E0,0E0,0E0,0E0,0E0,0E0,0E0,0E0,0E0,0E0,0E0,0E0,0E0,0E0,0E0,0E0,0E0,0E0,0E0,0E0],"parents":[2147483647,0,0,1,1,2,2,3,3,4,4,5,5,6,6,7,7,8,8,10,10,12,12,13,13,14,14,15,15,16,16,19,19,21,21,22,22,23,23,24,24,26,26,27,27,28,28,29,29,30,30,31,31,32,32,33,33,34,34,35,35,37,37,38,38,41,41],"right_children":[2,4,6,8,10,12,14,16,18,-1,20,-1,22,24,26,28,30,-1,-1,32,-1,34,36,38,40,-1,42,44,46,48,50,52,54,56,58,60,-1,62,64,-1,-1,66,-1,-1,-1,-1,-1,-1,-1,-1,-1,-1,-1,-1,-1,-1,-1,-1,-1,-1,-1,-1,-1,-1,-1,-1,-1],"split_conditions":[9.114938E-1,7.4534893E-1,-3.5496554E-1,3.9816847E0,1.9923155E0,1.7785854E0,6.9533485E-1,-1.8099071E-1,1.6156534E-2,4.8101848E-1,7.888636E-1,2.7210265E-1,6.850785E-2,2.7163992E0,1.7894914E0,-2.9303205E-1,-1.8014693E-1,-3.6278823E-1,1.5103741E-1,8.585573E-1,-3.291008E-1,-6.3341373E-1,3.1630953E-3,2.3086321E0,-3.8032767E-1,2.3843141E-1,3.5119245E0,-6.164517E-1,-2.714438E-1,-1.221285E0,-1.065422E0,7.7772737E-1,-3.1367794E-1,-6.899923E-1,-5.681142E-1,-2.521436E-1,-1.1534868E-1,5.938789E-1,6.6650194E-1,6.4303406E-2,-1.437958E-1,3.690647E-1,2.2017899E-1,1.1643511E-2,-1.675655E-1,1.7236143E-1,2.6459565E-2,-8.818075E-2,-2.7052534E-1,-9.862931E-2,-6.084004E-3,2.4527724E-1,-1.3573018E-1,-8.272877E-2,1.8872395E-1,-1.962662E-1,1.3926834E-1,-1.1157316E-1,-4.3422464E-1,2.5350702E-1,-3.8608372E-2,2.839474E-1,-1.9187827E-2,-1.7843366E-1,2.4863537E-1,1.08907625E-1,-4.7963682E-1],"split_indices":[5,10,28,2,10,5,24,22,27,0,24,0,4,2,5,22,22,0,0,3,0,16,27,4,24,0,13,10,22,1,2,11,21,11,4,19,0,17,9,0,0,0,0,0,0,0,0,0,0,0,0,0,0,0,0,0,0,0,0,0,0,0,0,0,0,0,0],"split_type":[0,0,0,0,0,0,0,0,0,0,0,0,0,0,0,0,0,0,0,0,0,0,0,0,0,0,0,0,0,0,0,0,0,0,0,0,0,0,0,0,0,0,0,0,0,0,0,0,0,0,0,0,0,0,0,0,0,0,0,0,0,0,0,0,0,0,0],"sum_hessian":[3.441413E3,3.24917E3,1.9224309E2,3.07633E3,1.7283981E2,1.945697E1,1.7278612E2,3.0454412E3,3.088891E1,1.4012294E1,1.5882753E2,5.321052E0,1.4135919E1,1.6316124E2,9.624866E0,1.7306228E3,1.3148185E3,2.969242E1,1.1964911E0,1.5460423E2,4.223298E0,7.8633757E0,6.2725425E0,1.6072546E2,2.4357798E0,2.7980351E0,6.8268304E0,6.1252716E2,1.1180956E3,9.9173386E1,1.2156451E3,6.81305E1,8.647373E1,5.4380174E0,2.425358E0,5.2030973E0,1.0694454E0,1.5470325E2,6.022219E0,1.1343732E0,1.3014067E0,4.6712866E0,2.1555438E0,3.5990857E2,2.5261858E2,2.2738475E2,8.907109E2,4.0954266E1,5.8219124E1,4.4115665E2,7.7448846E2,6.217083E1,5.9596696E0,4.3857334E1,4.2616394E1,1.4838585E0,3.954159E0,1.2795697E0,1.1457884E0,3.5195818E0,1.6835154E0,1.530004E2,1.7028584E0,2.5594954E0,3.4627237E0,2.7878227E0,1.8834641E0],"tree_param":{"num_deleted":"0","num_feature":"29","num_nodes":"67","size_leaf_vector":"1"}},{"base_weights":[1.2838328E-2,-3.6807485E-2,5.56621E-1,6.936485E-2,-1.2929268E-1,3.9094925E-1,9.052067E-1,3.4390837E-2,1.9685613E0,-7.449515E-2,-5.82869E-1,4.6103558E-1,-1.9730155E-1,-2.2199368E-1,9.335017E-1,2.0964089E-1,-6.788366E-2,3.3012754E-1,6.416644E-1,2.0089503E-3,-2.7645513E-1,-1.0106008E0,-2.935714E-1,4.9675363E-1,-4.6146354E-1,-4.514139E-1,2.612096E-1,9.78146E-1,3.8699588E-1,1.6836655E-1,2.025174E0,2.012522E-1,-1.5859982E-1,-3.3922326E-2,1.2836953E0,7.766868E-1,-3.8564122E-1,-1.0629644E0,-1.2741098E-1,-7.797214E-1,-1.4081076E-2,5.813128E-1,7.32709E-2,-6.263481E-1,4.713376E-2,1.2437666E-2,-1.420832E0,9.8946565E-1,1.1435069E-2,-3.6908716E-1,7.759824E-1,8.5761525E-2,-9.630232E-2,2.8144428E-1,6.735683E-1,-2.2520965E-2,2.4598005E-1,1.8974893E-2,-1.0181058E-1,-1.1584708E-1,1.3761524E-2,4.463327E-1,-3.429363E-2,-1.1043757E-1,2.7491605E-1,-1.3319694E-1,3.8306567E-1,-3.2554594E-1,-7.853554E-2,-2.5078976E-1,2.2785199E-1,-2.6098657E-1,1.1707483E-1,5.9730905E-1,-4.7336232E-2,1.8632483E-1,-1.4222269E-1,-7.7074036E-2,2.2804002E-1,2.1823697E-2,-2.871548E-1,-3.4937087E-1,1.3993758E-1,-5.514328E-1,8.283739E-2,1.3919547E-1,3.0023584E-1,2.8747392E-1,-8.098567E-3],"categories":[],"categories_nodes":[],"categories_segments":[],"categories_sizes":[],"default_left":[0,0,0,0,0,0,0,0,0,0,0,0,0,0,0,0,0,0,0,0,0,0,0,0,0,0,0,0,0,0,0,0,0,0,0,0,0,0,0,0,0,0,0,0,0,0,0,0,0,0,0,0,0,0,0,0,0,0,0,0,0,0,0,0,0,0,0,0,0,0,0,0,0,0,0,0,0,0,0,0,0,0,0,0,0,0,0,0,0],"id":10,"left_children":[1,3,5,7,9,11,13,15,17,19,21,23,25,-1,27,29,31,-1,-1,33,35,37,39,41,43,45,-1,47,49,51,53,55,57,59,61,63,65,67,69,71,73,75,77,79,-1,81,83,85,-1,-1,87,-1,-1,-1,-1,-1,-1,-1,-1,-1,-1,-1,-1,-1,-1,-1,-1,-1,-1,-1,-1,-1,-1,-1,-1,-1,-1,-1,-1,-1,-1,-1,-1,-1,-1,-1,-1,-1,-1],"loss_changes":[9.0470604E1,3.0165012E1,1.5836945E1,9.4942665E1,4.07604E1,7.9984818E0,4.8597794E0,2.5206707E1,1.4680634E0,2.2649422E1,2.1582134E1,5.8860435E0,6.1245923E0,0E0,1.7803879E0,3.8491993E1,2.1720327E1,0E0,0E0,4.90499E1,4.6609436E1,3.1447678E0,1.4511615E1,5.8932076E0,8.039839E-1,7.985088E0,0E0,8.257828E-1,6.1996794E0,2.9291954E1,6.274452E-1,3.8420677E1,2.6687983E1,2.9138397E1,8.4566765E0,6.44088E0,3.6029575E1,9.038086E-1,3.84372E0,4.4565735E0,2.0163021E1,6.0878487E0,6.7118516E0,1.3792727E0,0E0,7.4771805E0,4.5741377E0,1.2390137E-2,0E0,0E0,1.0992303E0,0E0,0E0,0E0,0E0,0E0,0E0,0E0,0E0,0E0,0E0,0E0,0E0,0E0,0E0,0E0,0E0,0E0,0E0,0E0,0E0,0E0,0E0,0E0,0E0,0E0,0E0,0E0,0E0,0E0,0E0,0E0,0E0,0E0,0E0,0E0,0E0,0E0,0E0],"parents":[2147483647,0,0,1,1,2,2,3,3,4,4,5,5,6,6,7,7,8,8,9,9,10,10,11,11,12,12,14,14,15,15,16,16,19,19,20,20,21,21,22,22,23,23,24,24,25,25,27,27,28,28,29,29,30,30,31,31,32,32,33,33,34,34,35,35,36,36,37,37,38,38,39,39,40,40,41,41,42,42,43,43,45,45,46,46,47,47,50,50],"right_children":[2,4,6,8,10,12,14,16,18,20,22,24,26,-1,28,30,32,-1,-1,34,36,38,40,42,44,46,-1,48,50,52,54,56,58,60,62,64,66,68,70,72,74,76,78,80,-1,82,84,86,-1,-1,88,-1,-1,-1,-1,-1,-1,-1,-1,-1,-1,-1,-1,-1,-1,-1,-1,-1,-1,-1,-1,-1,-1,-1,-1,-1,-1,-1,-1,-1,-1,-1,-1,-1,-1,-1,-1,-1,-1],"split_conditions":[2.9657835E-1,8.585573E-1,6.6650194E-1,-8.4538156E-1,4.5136353E-1,6.252387E-2,-6.4961773E-1,7.863537E-1,-2.4637452E-1,2.5061122E-1,-1.4470029E-1,1.4067206E0,2.7158566E0,-2.2199368E-1,5.4870103E-2,-1.221285E0,-6.7427635E-1,3.3012754E-1,6.416644E-1,9.663139E-2,-5.2401674E-1,3.2638784E-2,-1.221285E0,7.988779E-3,-3.0016524E-1,8.8226444E-1,2.612096E-1,4.289523E-1,-3.5719746E-1,1.4404505E0,9.6463285E-2,-9.0228015E-1,1.4860523E-2,-3.1367794E-1,4.060841E-2,-9.054778E-1,2.9340715E0,1.5903189E0,3.2865173E-1,7.4379855E-1,7.451947E-1,2.1170566E0,9.114938E-1,-6.46616E-1,4.713376E-2,-2.8306028E-1,6.561742E-1,-1.1877205E0,1.1435069E-2,-3.6908716E-1,3.163729E0,8.5761525E-2,-9.630232E-2,2.8144428E-1,6.735683E-1,-2.2520965E-2,2.4598005E-1,1.8974893E-2,-1.0181058E-1,-1.1584708E-1,1.3761524E-2,4.463327E-1,-3.429363E-2,-1.1043757E-1,2.7491605E-1,-1.3319694E-1,3.8306567E-1,-3.2554594E-1,-7.853554E-2,-2.5078976E-1,2.2785199E-1,-2.6098657E-1,1.1707483E-1,5.9730905E-1,-4.7336232E-2,1.8632483E-1,-1.4222269E-1,-7.7074036E-2,2.2804002E-1,2.1823697E-2,-2.871548E-1,-3.4937087E-1,1.3993758E-1,-5.514328E-1,8.283739E-2,1.3919547E-1,3.0023584E-1,2.8747392E-1,-8.098567E-3],"split_indices":[6,3,9,3,24,22,16,1,18,0,16,0,13,0,18,1,0,0,0,0,24,5,1,27,17,16,0,20,0,2,0,0,5,21,21,4,14,14,22,8,1,4,5,11,0,20,7,0,0,0,11,0,0,0,0,0,0,0,0,0,0,0,0,0,0,0,0,0,0,0,0,0,0,0,0,0,0,0,0,0,0,0,0,0,0,0,0,0,0],"split_type":[0,0,0,0,0,0,0,0,0,0,0,0,0,0,0,0,0,0,0,0,0,0,0,0,0,0,0,0,0,0,0,0,0,0,0,0,0,0,0,0,0,0,0,0,0,0,0,0,0,0,0,0,0,0,0,0,0,0,0,0,0,0,0,0,0,0,0,0,0,0,0,0,0,0,0,0,0,0,0,0,0,0,0,0,0,0,0,0,0],"sum_hessian":[3.3494343E3,3.0700774E3,2.7935703E2,1.4293937E3,1.6406837E3,1.9079822E2,8.8558815E1,1.4045468E3,2.4846855E1,1.4648734E3,1.7581029E2,1.7067915E2,2.0119068E1,1.0720707E0,8.748675E1,5.1722253E2,8.873242E2,5.2988873E0,1.9547968E1,1.0631381E3,4.0173538E2,6.992765E1,1.0588263E2,1.647613E2,5.917847E0,1.6718513E1,3.4005556E0,8.0149475E1,7.3372674E0,5.0679385E2,1.0428717E1,2.2338101E2,6.6394324E2,1.0350934E3,2.8044664E1,3.7163704E1,3.645717E2,6.582159E1,4.106058E0,3.7998184E1,6.7884445E1,1.3702756E2,2.773375E1,4.662476E0,1.255371E0,1.1975562E1,4.742951E0,7.914385E1,1.0056236E0,1.0032502E0,6.3340173E0,4.0900275E2,9.7791084E1,2.6418278E0,7.786889E0,1.5502205E2,6.8358955E1,2.9839114E2,3.655521E2,1.9046873E2,8.4462463E2,2.4416193E1,3.6284726E0,3.8639941E0,3.329971E1,3.529185E2,1.1653193E1,6.3702896E1,2.118695E0,2.3144786E0,1.7915794E0,3.5515488E1,2.482697E0,3.6802113E0,6.420424E1,1.3244804E2,4.579503E0,1.9152727E1,8.581021E0,1.7482741E0,2.9142022E0,2.8979313E0,9.077631E0,3.7400923E0,1.0028586E0,2.5544708E0,7.6589386E1,5.004666E0,1.3293512E0],"tree_param":{"num_deleted":"0","num_feature":"29","num_nodes":"89","size_leaf_vector":"1"}},{"base_weights":[1.0746406E-2,-1.8611986E-2,6.9594663E-1,1.3513222E-2,-3.1581497E-1,5.245094E-1,2.9455018E-1,2.2965379E-2,-8.830369E-1,-4.1983116E-1,3.286127E-1,7.5501966E-1,2.829572E-1,4.1316625E-2,-4.3432492E-1,-1.4142619E-1,-1.0225447E0,-1.9054276E-1,-6.484866E-1,-4.7325242E-1,8.464928E-1,1.2172227E-1,8.4413195E-1,3.69899E-1,-4.5491782E-1,-8.868647E-2,1.0709649E-1,5.616837E-1,-7.341914E-1,-7.795402E-1,3.8240606E-1,-1.0552115E0,-5.303681E-2,-5.7309586E-1,1.965224E-1,9.184475E-1,-7.3414326E-1,6.7896646E-1,-8.3896303E-1,-5.1531696E-1,1.0460794E0,5.4378057E-1,-3.611475E-1,8.814934E-1,-4.91977E-2,5.8299935E-1,-5.228923E-1,3.4271127E-3,-2.3670067E-1,5.873234E-1,2.0034177E-2,2.1973534E-1,-2.9283544E-1,-2.8763062E-1,-5.2316718E-2,-2.683518E-1,-5.713344E-2,-1.5730372E-1,-3.359946E-1,-3.1843182E-1,-1.06774665E-1,1.9736977E-1,-4.293494E-2,5.860399E-1,-1.4926434E-1,-8.451235E-4,-2.310246E-1,-1.15572535E-1,3.2319286E-1,5.382516E-2,-3.599465E-1,1.1486974E-1,-3.042404E-1,3.5449836E-1,-2.1941267E-1,8.356202E-3,2.2023194E-1,-2.2854845E-1,8.915571E-2,9.421361E-2,2.775361E-1,-2.1374728E-1,2.039534E-1,-3.3967698E-1,1.7930897E-2],"categories":[],"categories_nodes":[],"categories_segments":[],"categories_sizes":[],"default_left":[0,0,0,0,0,0,0,0,0,0,0,0,0,0,0,0,0,0,0,0,0,0,0,0,0,0,0,0,0,0,0,0,0,0,0,0,0,0,0,0,0,0,0,0,0,0,0,0,0,0,0,0,0,0,0,0,0,0,0,0,0,0,0,0,0,0,0,0,0,0,0,0,0,0,0,0,0,0,0,0,0,0,0,0,0],"id":11,"left_children":[1,3,5,7,9,11,-1,13,15,17,19,21,23,25,27,29,31,33,35,37,39,41,43,45,-1,47,49,51,53,55,-1,57,-1,59,61,63,65,67,69,71,73,75,77,79,-1,81,83,-1,-1,-1,-1,-1,-1,-1,-1,-1,-1,-1,-1,-1,-1,-1,-1,-1,-1,-1,-1,-1,-1,-1,-1,-1,-1,-1,-1,-1,-1,-1,-1,-1,-1,-1,-1,-1,-1],"loss_changes":[6.559583E1,2.9861855E1,6.0513E0,2.3944227E1,2.058857E1,4.5691814E0,0E0,2.3470045E1,2.9052296E0,1.367186E1,1.8241276E1,2.3439178E0,7.37284E0,2.2993765E1,3.264167E1,6.2599316E0,4.944954E-1,1.977665E1,1.8301285E1,7.9437294E0,7.7313232E0,1.5244238E0,1.5697193E0,8.360331E0,0E0,6.3357635E1,1.3305974E2,7.421112E0,1.0314312E1,1.4375949E-1,0E0,2.2189522E-1,0E0,6.732851E0,1.0554784E1,1.159939E1,3.2852936E0,2.4366627E0,5.2613E0,2.2039945E0,6.505636E0,3.6017704E-1,1.1866113E0,6.165867E-1,0E0,4.832225E0,3.1516774E0,0E0,0E0,0E0,0E0,0E0,0E0,0E0,0E0,0E0,0E0,0E0,0E0,0E0,0E0,0E0,0E0,0E0,0E0,0E0,0E0,0E0,0E0,0E0,0E0,0E0,0E0,0E0,0E0,0E0,0E0,0E0,0E0,0E0,0E0,0E0,0E0,0E0,0E0],"parents":[2147483647,0,0,1,1,2,2,3,3,4,4,5,5,7,7,8,8,9,9,10,10,11,11,12,12,13,13,14,14,15,15,16,16,17,17,18,18,19,19,20,20,21,21,22,22,23,23,25,25,26,26,27,27,28,28,29,29,31,31,33,33,34,34,35,35,36,36,37,37,38,38,39,39,40,40,41,41,42,42,43,43,45,45,46,46],"right_children":[2,4,6,8,10,12,-1,14,16,18,20,22,24,26,28,30,32,34,36,38,40,42,44,46,-1,48,50,52,54,56,-1,58,-1,60,62,64,66,68,70,72,74,76,78,80,-1,82,84,-1,-1,-1,-1,-1,-1,-1,-1,-1,-1,-1,-1,-1,-1,-1,-1,-1,-1,-1,-1,-1,-1,-1,-1,-1,-1,-1,-1,-1,-1,-1,-1,-1,-1,-1,-1,-1,-1],"split_conditions":[9.114938E-1,1.770291E-1,7.4534893E-1,2.7163992E0,3.5343688E0,8.585573E-1,2.9455018E-1,2.0085704E0,-8.264257E-3,-3.1374297E-3,-1.221285E0,-6.8206125E-1,2.4068227E0,-6.969227E-1,-6.903454E-1,1.8803005E-1,1.0996037E0,-1.1143591E-2,-6.921663E-1,1.7216365E-1,3.261739E-1,-2.2678183E-1,7.065616E-1,2.5061122E-1,-4.5491782E-1,-7.035881E-1,-5.9510183E-1,-5.520251E-1,-1.2334472E-1,5.033055E-4,3.8240606E-1,-1.0112964E0,-5.303681E-2,9.663139E-2,1.3844684E-1,-7.035881E-1,-1.1375335E0,-3.1823611E-3,2.7920026E-1,-3.0245958E-3,2.1867096E0,-2.7642968E-1,-6.765678E-1,-4.7071174E-1,-4.91977E-2,-2.6437059E-2,-1.1049172E-1,3.4271127E-3,-2.3670067E-1,5.873234E-1,2.0034177E-2,2.1973534E-1,-2.9283544E-1,-2.8763062E-1,-5.2316718E-2,-2.683518E-1,-5.713344E-2,-1.5730372E-1,-3.359946E-1,-3.1843182E-1,-1.06774665E-1,1.9736977E-1,-4.293494E-2,5.860399E-1,-1.4926434E-1,-8.451235E-4,-2.310246E-1,-1.15572535E-1,3.2319286E-1,5.382516E-2,-3.599465E-1,1.1486974E-1,-3.042404E-1,3.5449836E-1,-2.1941267E-1,8.356202E-3,2.2023194E-1,-2.2854845E-1,8.915571E-2,9.421361E-2,2.775361E-1,-2.1374728E-1,2.039534E-1,-3.3967698E-1,1.7930897E-2],"split_indices":[5,18,10,2,23,3,0,4,27,27,1,11,4,4,11,4,24,27,12,22,17,18,20,0,0,4,4,15,19,15,0,4,0,0,2,4,4,4,20,27,24,22,12,24,0,27,22,0,0,0,0,0,0,0,0,0,0,0,0,0,0,0,0,0,0,0,0,0,0,0,0,0,0,0,0,0,0,0,0,0,0,0,0,0,0],"split_type":[0,0,0,0,0,0,0,0,0,0,0,0,0,0,0,0,0,0,0,0,0,0,0,0,0,0,0,0,0,0,0,0,0,0,0,0,0,0,0,0,0,0,0,0,0,0,0,0,0,0,0,0,0,0,0,0,0,0,0,0,0,0,0,0,0,0,0,0,0,0,0,0,0,0,0,0,0,0,0,0,0,0,0,0,0],"sum_hessian":[3.2591733E3,3.1261997E3,1.329737E2,2.8221074E3,3.0409216E2,8.489788E1,4.8075813E1,2.7936292E3,2.8478315E1,2.6213055E2,4.196162E1,4.2354137E1,4.254374E1,2.6867197E3,1.069095E2,4.8278217E0,2.3650494E1,1.3179951E2,1.3033102E2,1.649994E1,2.5461681E1,5.5164084E0,3.683773E1,4.1340652E1,1.2030902E0,9.025768E2,1.7841428E3,2.45369E1,8.23726E1,3.6380177E0,1.1898041E0,2.2532534E1,1.1179593E0,6.604439E1,6.575513E1,6.2513504E0,1.2407968E2,3.7689152E0,1.2731026E1,3.0524473E0,2.2409233E1,2.8762465E0,2.640162E0,3.5642418E1,1.19531E0,3.365462E1,7.686029E0,7.905511E2,1.1202565E2,3.702445E1,1.7471184E3,2.2555855E1,1.9810449E0,5.8279697E1,2.40929E1,2.6101835E0,1.0278342E0,3.4392788E0,1.9093254E1,1.9133701E1,4.691069E1,2.7483526E1,3.82716E1,3.3922336E0,2.859117E0,5.8624024E0,1.1821728E2,1.0354661E0,2.733449E0,3.462447E0,9.268579E0,1.1728659E0,1.8795815E0,2.1132475E1,1.2767597E0,1.0840372E0,1.7922093E0,1.5435221E0,1.0966399E0,3.1299577E0,3.2512463E1,1.8987134E0,3.1755909E1,3.295869E0,4.3901596E0],"tree_param":{"num_deleted":"0","num_feature":"29","num_nodes":"85","size_leaf_vector":"1"}},{"base_weights":[7.6105813E-3,-2.9881999E-2,4.207623E-1,7.5564305E-3,-2.2892836E-1,1.315962E0,3.576368E-1,-3.6241835E-1,4.077493E-2,1.9636151E-1,-3.969808E-1,1.1199571E-1,4.0551776E-1,1.5213503E-1,6.122059E-1,-1.1102517E0,-2.2001576E-1,5.083714E-1,2.9039105E-2,3.7328392E-1,-8.5943496E-1,-7.170243E-1,-1.6146804E-1,5.261054E-1,-4.3426413E-2,-3.4370363E-1,6.418634E-1,-1.204843E-2,-1.2151617E0,2.656008E-1,-4.2361736E-1,1.8387152E-1,-5.2602675E-2,7.492754E-1,2.4922648E-2,-1.0684776E0,4.9646464E-1,-1.0904917E0,-5.522165E-1,-2.94713E-1,2.1557786E-1,-4.92633E-1,7.506801E-1,3.2079047E-1,-2.7849153E-1,3.0522624E-1,8.005697E-1,2.6312965E-1,-2.4283153E-1,-3.985878E-1,-1.9103397E-1,1.9352573E-1,-7.6173976E-2,1.5400396E-2,-2.6636514E-1,3.3557337E-2,4.9668118E-1,-1.731722E-1,-2.2897199E-3,2.6839128E-1,-7.60412E-2,-4.3581244E-2,3.421436E-1,-3.4910077E-1,-1.0023348E-2,3.5444754E-1,-1.0909612E-1,-4.0891156E-1,-2.0260654E-1,5.197341E-1,-2.0353565E-1,-2.077513E-4,-2.0697108E-1,-3.1995973E-1,1.093361E-1,2.2295538E-1,-3.2187998E-1,2.6266873E-1,-3.0261624E-1,-2.1643437E-1,1.6354683E-1,-3.983843E-1,-4.5999005E-2,1.411846E-1,-1.5808757E-1,2.6493332E-1,1.1564105E-1],"categories":[],"categories_nodes":[],"categories_segments":[],"categories_sizes":[],"default_left":[0,0,0,0,0,0,0,0,0,0,0,0,0,0,0,0,0,0,0,0,0,0,0,0,0,0,0,0,0,0,0,0,0,0,0,0,0,0,0,0,0,0,0,0,0,0,0,0,0,0,0,0,0,0,0,0,0,0,0,0,0,0,0,0,0,0,0,0,0,0,0,0,0,0,0,0,0,0,0,0,0,0,0,0,0,0,0],"id":12,"left_children":[1,3,5,7,9,11,13,15,17,19,21,-1,-1,23,25,27,29,-1,31,33,35,37,39,41,43,-1,45,47,49,51,53,55,57,59,61,63,65,67,69,71,73,75,77,79,81,83,85,-1,-1,-1,-1,-1,-1,-1,-1,-1,-1,-1,-1,-1,-1,-1,-1,-1,-1,-1,-1,-1,-1,-1,-1,-1,-1,-1,-1,-1,-1,-1,-1,-1,-1,-1,-1,-1,-1,-1,-1],"loss_changes":[4.9540073E1,2.1853037E1,1.4565491E1,3.0359205E1,3.3258198E1,7.366943E-2,1.2981571E1,2.1429379E1,4.394075E1,2.5007147E1,2.4990646E1,0E0,0E0,1.0233917E1,6.5381775E0,3.7076683E0,1.7139603E1,0E0,2.8471165E1,1.4898424E1,5.992481E0,8.071091E0,9.7686E0,1.1355561E1,8.017496E0,0E0,5.6378403E0,3.4234662E0,1.088665E0,1.0314533E1,2.6886444E1,8.22249E1,3.4795307E1,8.205341E0,1.1585835E1,1.6374569E0,2.3486164E0,3.8449364E0,2.9956825E1,1.663356E1,1.0126938E1,7.4504285E0,9.615044E0,8.995814E0,7.259141E0,5.32553E0,2.2021446E0,0E0,0E0,0E0,0E0,0E0,0E0,0E0,0E0,0E0,0E0,0E0,0E0,0E0,0E0,0E0,0E0,0E0,0E0,0E0,0E0,0E0,0E0,0E0,0E0,0E0,0E0,0E0,0E0,0E0,0E0,0E0,0E0,0E0,0E0,0E0,0E0,0E0,0E0,0E0,0E0],"parents":[2147483647,0,0,1,1,2,2,3,3,4,4,5,5,6,6,7,7,8,8,9,9,10,10,13,13,14,14,15,15,16,16,18,18,19,19,20,20,21,21,22,22,23,23,24,24,26,26,27,27,28,28,29,29,30,30,31,31,32,32,33,33,34,34,35,35,36,36,37,37,38,38,39,39,40,40,41,41,42,42,43,43,44,44,45,45,46,46],"right_children":[2,4,6,8,10,12,14,16,18,20,22,-1,-1,24,26,28,30,-1,32,34,36,38,40,42,44,-1,46,48,50,52,54,56,58,60,62,64,66,68,70,72,74,76,78,80,82,84,86,-1,-1,-1,-1,-1,-1,-1,-1,-1,-1,-1,-1,-1,-1,-1,-1,-1,-1,-1,-1,-1,-1,-1,-1,-1,-1,-1,-1,-1,-1,-1,-1,-1,-1,-1,-1,-1,-1,-1,-1],"split_conditions":[6.561742E-1,1.0213509E0,1.8099213E0,-1.6980102E0,-6.9666344E-1,-2.9651728E-1,3.2638784E-2,-6.680654E-1,-8.749911E-1,4.5136353E-1,9.811703E-3,1.1199571E-1,4.0551776E-1,2.5313738E-1,-6.631641E-1,-8.550739E-3,-4.866858E-1,5.083714E-1,2.5313738E-1,-6.930887E-1,-1.2016221E0,-1.5996313E0,2.9326465E0,-1.2264212E0,1.8582825E-1,-3.4370363E-1,7.4379855E-1,-1.0309329E0,3.0592096E-1,2.0898396E-1,-6.6643494E-1,-4.7416735E-1,-2.9303205E-1,-6.164517E-1,-5.279054E-1,1.8175004E-2,-3.705235E-1,-6.3213754E-1,-1.2365018E0,8.585573E-1,2.4417949E0,-7.4190015E-1,-2.7966166E-1,-5.823277E-1,-1.344615E0,1.1406796E0,-8.504931E-2,2.6312965E-1,-2.4283153E-1,-3.985878E-1,-1.9103397E-1,1.9352573E-1,-7.6173976E-2,1.5400396E-2,-2.6636514E-1,3.3557337E-2,4.9668118E-1,-1.731722E-1,-2.2897199E-3,2.6839128E-1,-7.60412E-2,-4.3581244E-2,3.421436E-1,-3.4910077E-1,-1.0023348E-2,3.5444754E-1,-1.0909612E-1,-4.0891156E-1,-2.0260654E-1,5.197341E-1,-2.0353565E-1,-2.077513E-4,-2.0697108E-1,-3.1995973E-1,1.093361E-1,2.2295538E-1,-3.2187998E-1,2.6266873E-1,-3.0261624E-1,-2.1643437E-1,1.6354683E-1,-3.983843E-1,-4.5999005E-2,1.411846E-1,-1.5808757E-1,2.6493332E-1,1.1564105E-1],"split_indices":[7,0,7,5,7,19,5,0,5,24,24,0,0,10,15,27,4,0,10,11,6,28,16,28,2,0,8,0,4,0,14,10,22,10,15,11,15,16,28,3,11,1,12,13,4,4,21,0,0,0,0,0,0,0,0,0,0,0,0,0,0,0,0,0,0,0,0,0,0,0,0,0,0,0,0,0,0,0,0,0,0,0,0,0,0,0,0],"split_type":[0,0,0,0,0,0,0,0,0,0,0,0,0,0,0,0,0,0,0,0,0,0,0,0,0,0,0,0,0,0,0,0,0,0,0,0,0,0,0,0,0,0,0,0,0,0,0,0,0,0,0,0,0,0,0,0,0,0,0,0,0,0,0,0,0,0,0,0,0,0,0,0,0,0,0,0,0,0,0,0,0,0,0,0,0,0,0],"sum_hessian":[3.1963599E3,2.9312805E3,2.6507938E2,2.4680327E3,4.6324774E2,1.6153631E1,2.4892574E2,2.025211E2,2.2655117E3,1.3115802E2,3.3208972E2,1.008576E0,1.5145055E1,1.3862105E2,1.103047E2,3.130819E1,1.712129E2,1.4953067E1,2.2505586E3,1.128876E2,1.827041E1,1.3991354E2,1.921762E2,4.7018246E1,9.16028E1,1.2057539E0,1.09098946E2,2.8272493E0,2.8480942E1,5.0487965E1,1.20724945E2,7.765641E2,1.4739945E3,5.3737293E1,5.915031E1,1.601354E1,2.2568703E0,4.111869E1,9.879486E1,1.4215732E2,5.001887E1,8.27712E0,3.8741127E1,3.578765E1,5.5815144E1,3.5891506E1,7.3207436E1,1.2894535E0,1.5377958E0,2.2725595E1,5.755345E0,2.9036335E1,2.145163E1,6.011537E1,6.0609573E1,7.413642E2,3.5199894E1,1.15436646E2,1.3585579E3,4.702777E1,6.7095237E0,5.2075283E1,7.0750256E0,1.4551079E1,1.4624608E0,1.0483171E0,1.2085533E0,2.3443888E1,1.7674805E1,4.506712E0,9.428815E1,8.208677E1,6.007054E1,4.562548E0,4.5456326E1,2.5550818E0,5.722038E0,3.6642586E1,2.0985403E0,5.9469533E0,2.9840698E1,4.9234076E0,5.0891735E1,3.0303457E1,5.5880513E0,6.0124405E1,1.3083032E1],"tree_param":{"num_deleted":"0","num_feature":"29","num_nodes":"87","size_leaf_vector":"1"}},{"base_weights":[5.750448E-3,-2.2230592E-2,4.6211144E-1,-1.0446018E-3,-3.804728E-1,4.1194925E-1,3.8702342E-1,-3.7153922E-2,2.0556508E-1,-1.0107483E0,-3.259684E-1,1.7116937E-1,7.995978E-1,1.9360682E-1,-8.825137E-2,7.726561E-1,1.2742466E-1,9.054428E-3,-3.3995882E-1,4.5325273E-1,-4.4337818E-1,4.7106984E-1,-7.9332374E-2,9.01994E-1,-2.333978E-1,-5.7408802E-2,1.1106131E0,6.9377616E-2,-2.4003538E-1,1.0056497E0,-6.6399693E-1,1.371087E-2,6.127676E-1,1.1455208E0,4.8126232E-2,-8.7374717E-1,-2.637221E-1,6.154315E-1,-8.393736E-1,-2.591272E-1,9.015055E-1,9.317128E-1,-6.328656E-2,-1.0587913E0,1.8262623E-1,-8.9612395E-2,7.603498E-2,4.196644E-1,2.703436E-1,7.094024E-3,5.4005903E-1,-1.5144973E-2,-1.4126278E-1,3.7293875E-1,-7.43032E-2,1.21880315E-1,-2.669322E-1,9.09628E-2,-5.2471034E-2,7.052804E-1,3.9933465E-2,-7.239532E-2,4.949356E-1,-2.6098016E-1,1.7440425E-1,9.983167E-2,-2.809563E-1,2.5010778E-2,-1.6659673E-1,2.465471E-1,-1.5965458E-2,-3.2170624E-1,-2.6276635E-2,-2.5370342E-1,2.30912E-2,-8.8101655E-2,3.8013577E-1,2.125156E-2,2.8476E-1,-4.522241E-1,-1.0306165E-2],"categories":[],"categories_nodes":[],"categories_segments":[],"categories_sizes":[],"default_left":[0,0,0,0,0,0,0,0,0,0,0,0,0,0,0,0,0,0,0,0,0,0,0,0,0,0,0,0,0,0,0,0,0,0,0,0,0,0,0,0,0,0,0,0,0,0,0,0,0,0,0,0,0,0,0,0,0,0,0,0,0,0,0,0,0,0,0,0,0,0,0,0,0,0,0,0,0,0,0,0,0],"id":13,"left_children":[1,3,5,7,9,-1,11,13,15,17,19,21,23,25,27,29,31,-1,-1,33,35,37,39,41,43,45,47,49,51,53,55,57,59,61,63,65,67,69,71,73,75,77,-1,79,-1,-1,-1,-1,-1,-1,-1,-1,-1,-1,-1,-1,-1,-1,-1,-1,-1,-1,-1,-1,-1,-1,-1,-1,-1,-1,-1,-1,-1,-1,-1,-1,-1,-1,-1,-1,-1],"loss_changes":[3.9898308E1,2.2345251E1,1.1816837E1,2.0753963E1,5.317831E0,0E0,1.483827E1,2.7938318E1,1.8240551E1,1.641284E0,1.4178795E1,8.426554E0,6.291065E0,9.8949066E1,4.641694E1,1.737823E1,2.013227E1,0E0,0E0,5.694424E0,1.0074739E1,1.015847E1,1.1114617E1,1.9332466E0,4.8004675E0,2.5445766E1,4.317093E0,7.5320946E1,4.3217197E1,1.3211559E1,2.190414E0,1.6252981E1,5.7421547E1,5.660203E0,7.347541E0,3.2517986E0,9.708202E0,6.4591007E0,8.660028E-1,1.0497641E1,4.6463675E0,7.054291E-1,0E0,1.5036895E0,0E0,0E0,0E0,0E0,0E0,0E0,0E0,0E0,0E0,0E0,0E0,0E0,0E0,0E0,0E0,0E0,0E0,0E0,0E0,0E0,0E0,0E0,0E0,0E0,0E0,0E0,0E0,0E0,0E0,0E0,0E0,0E0,0E0,0E0,0E0,0E0,0E0],"parents":[2147483647,0,0,1,1,2,2,3,3,4,4,6,6,7,7,8,8,9,9,10,10,11,11,12,12,13,13,14,14,15,15,16,16,19,19,20,20,21,21,22,22,23,23,24,24,25,25,26,26,27,27,28,28,29,29,30,30,31,31,32,32,33,33,34,34,35,35,36,36,37,37,38,38,39,39,40,40,41,41,43,43],"right_children":[2,4,6,8,10,-1,12,14,16,18,20,22,24,26,28,30,32,-1,-1,34,36,38,40,42,44,46,48,50,52,54,56,58,60,62,64,66,68,70,72,74,76,78,-1,80,-1,-1,-1,-1,-1,-1,-1,-1,-1,-1,-1,-1,-1,-1,-1,-1,-1,-1,-1,-1,-1,-1,-1,-1,-1,-1,-1,-1,-1,-1,-1,-1,-1,-1,-1,-1,-1],"split_conditions":[7.4534893E-1,5.3289086E-1,1.9923155E0,5.9206766E-1,-6.524312E-1,4.1194925E-1,3.2638784E-2,-9.0549827E-1,-1.8099071E-1,-4.5316714E-1,-6.21252E-1,8.585573E-1,5.4870103E-2,-1.0519677E0,1.11736104E-1,7.9012895E-1,1.9415845E-1,9.054428E-3,-3.3995882E-1,-4.866858E-1,-2.28235E-1,7.7772737E-1,8.8226444E-1,6.4943117E-1,9.114938E-1,-1.136395E0,-9.825722E-1,-6.3361156E-1,-5.201284E-1,9.0225376E-2,-1.3379441E0,7.923884E-1,1.4511137E0,-1.0112964E0,-1.065422E0,-3.043181E-1,5.284468E-1,7.7445963E-3,2.638952E-1,-1.065422E0,-1.221285E0,-5.554432E-2,-6.328656E-2,-1.1084587E-1,1.8262623E-1,-8.9612395E-2,7.603498E-2,4.196644E-1,2.703436E-1,7.094024E-3,5.4005903E-1,-1.5144973E-2,-1.4126278E-1,3.7293875E-1,-7.43032E-2,1.21880315E-1,-2.669322E-1,9.09628E-2,-5.2471034E-2,7.052804E-1,3.9933465E-2,-7.239532E-2,4.949356E-1,-2.6098016E-1,1.7440425E-1,9.983167E-2,-2.809563E-1,2.5010778E-2,-1.6659673E-1,2.465471E-1,-1.5965458E-2,-3.2170624E-1,-2.6276635E-2,-2.5370342E-1,2.30912E-2,-8.8101655E-2,3.8013577E-1,2.125156E-2,2.8476E-1,-4.522241E-1,-1.0306165E-2],"split_indices":[10,17,10,13,16,0,5,0,22,12,15,3,18,0,6,0,2,0,0,4,12,11,16,20,5,0,0,6,0,18,28,1,2,4,2,21,12,27,17,2,1,27,0,0,0,0,0,0,0,0,0,0,0,0,0,0,0,0,0,0,0,0,0,0,0,0,0,0,0,0,0,0,0,0,0,0,0,0,0,0,0],"split_type":[0,0,0,0,0,0,0,0,0,0,0,0,0,0,0,0,0,0,0,0,0,0,0,0,0,0,0,0,0,0,0,0,0,0,0,0,0,0,0,0,0,0,0,0,0,0,0,0,0,0,0,0,0,0,0,0,0,0,0,0,0,0,0,0,0,0,0,0,0,0,0,0,0,0,0,0,0,0,0,0,0],"sum_hessian":[3.1227073E3,2.943201E3,1.7950635E2,2.7798093E3,1.633915E2,1.2351889E1,1.6715445E2,2.366955E3,4.1285425E2,1.16085615E1,1.5178293E2,1.1066875E2,5.6485706E1,4.2859445E2,1.9383607E3,4.8922115E1,3.6393213E2,1.3011334E0,1.0307428E1,1.9500725E1,1.322822E2,4.996736E1,6.0701385E1,5.1506878E1,4.978828E0,3.3722263E2,9.137183E1,9.5113837E2,9.8722235E2,4.2353336E1,6.5687766E0,2.9568307E2,6.824905E1,6.524423E0,1.2976302E1,3.7820103E1,9.44621E1,4.548679E1,4.4805727E0,5.1919895E1,8.78149E0,5.032588E1,1.1809973E0,2.3845167E0,2.5943112E0,1.8987459E2,1.4734804E2,3.606339E1,5.5308445E1,9.2764233E2,2.3496058E1,5.427598E2,4.444625E2,3.561346E1,6.7398777E0,1.0050509E0,5.563726E0,1.1640658E2,1.792765E2,1.3916703E1,5.4332344E1,1.8787879E0,4.645635E0,4.535666E0,8.440637E0,1.6577041E0,3.6162395E1,4.3453533E1,5.1008568E1,3.458298E1,1.090381E1,3.0950089E0,1.3855641E0,1.8360819E1,3.3559074E1,2.1031477E0,6.678343E0,1.1024832E0,4.9223396E1,1.3304362E0,1.0540806E0],"tree_param":{"num_deleted":"0","num_feature":"29","num_nodes":"81","size_leaf_vector":"1"}},{"base_weights":[5.361217E-3,-1.2014973E-2,5.53541E-1,-2.3973676E-4,-5.6546044E-1,4.001865E-1,9.2089427E-1,3.652514E-2,-1.8425925E-1,3.1563833E-1,-6.835503E-1,2.8327763E-1,2.8329346E-1,7.878736E-2,9.36272E-1,-1.32232085E-2,1.7324847E0,-2.3693717E-1,3.356861E-1,7.192173E-1,-4.7021547E-1,-9.1264313E-1,-2.030035E-1,3.772426E-1,-5.4951966E-1,2.9131243E-1,4.0786195E-1,4.8274282E-2,-1.4543143E-1,3.7906143E-1,1.934135E0,-9.6450575E-2,-5.499591E-1,-7.9533243E-1,8.705468E-1,3.1073296E-1,1.4604522E-1,-2.387908E-1,4.0914886E-2,-9.727818E-1,1.0083581E-1,1.5055265E0,-5.8487374E-1,8.414954E-2,7.4405134E-1,-9.419648E-1,1.7451152E-1,2.494531E-3,1.7345789E-1,-4.9722515E-2,4.041123E-2,-2.767849E-1,-2.3875833E-2,6.1317575E-1,3.4247276E-1,-1.2787379E-2,-2.54663E-1,-1.3596829E-2,-2.2073147E-1,-3.130952E-1,-4.7154255E-2,3.784687E-1,-1.6638538E-1,2.0629841E-1,-1.4073607E-1,-3.147076E-1,4.9423963E-2,5.948685E-1,1.5692566E-1,-2.7805004E-1,1.7839016E-2,-8.2151E-2,1.4188045E-1,2.5106573E-1,-9.946675E-2,-3.0351873E-2,-3.8554117E-1],"categories":[],"categories_nodes":[],"categories_segments":[],"categories_sizes":[],"default_left":[0,0,0,0,0,0,0,0,0,0,0,0,0,0,0,0,0,0,0,0,0,0,0,0,0,0,0,0,0,0,0,0,0,0,0,0,0,0,0,0,0,0,0,0,0,0,0,0,0,0,0,0,0,0,0,0,0,0,0,0,0,0,0,0,0,0,0,0,0,0,0,0,0,0,0,0,0],"id":14,"left_children":[1,3,5,7,9,11,13,15,17,19,21,-1,23,-1,25,27,29,31,33,35,37,39,41,43,45,-1,47,49,51,-1,53,55,57,59,61,-1,63,-1,-1,65,-1,67,69,71,73,75,-1,-1,-1,-1,-1,-1,-1,-1,-1,-1,-1,-1,-1,-1,-1,-1,-1,-1,-1,-1,-1,-1,-1,-1,-1,-1,-1,-1,-1,-1,-1],"loss_changes":[2.913696E1,1.9324121E1,4.925974E0,1.965669E1,6.643284E0,4.061742E0,2.651596E-2,2.0433972E2,1.3331011E1,2.8706398E0,5.846464E0,0E0,4.7032266E0,0E0,7.990837E-2,1.9143093E1,4.082733E0,1.9291368E1,2.7867199E1,8.7768126E-1,7.634065E-1,3.0917816E0,1.3259658E1,5.5525427E0,3.3146687E0,0E0,2.2138011E-1,2.9750328E1,3.8177864E1,0E0,1.7022705E0,1.2309696E1,1.2724281E1,2.2042923E0,1.7961533E1,0E0,1.3827256E0,0E0,0E0,3.2413712E0,0E0,7.195339E-1,3.6307044E0,4.3270993E0,2.5810957E0,1.3151841E0,0E0,0E0,0E0,0E0,0E0,0E0,0E0,0E0,0E0,0E0,0E0,0E0,0E0,0E0,0E0,0E0,0E0,0E0,0E0,0E0,0E0,0E0,0E0,0E0,0E0,0E0,0E0,0E0,0E0,0E0,0E0],"parents":[2147483647,0,0,1,1,2,2,3,3,4,4,5,5,6,6,7,7,8,8,9,9,10,10,12,12,14,14,15,15,16,16,17,17,18,18,19,19,20,20,21,21,22,22,23,23,24,24,26,26,27,27,28,28,30,30,31,31,32,32,33,33,34,34,36,36,39,39,41,41,42,42,43,43,44,44,45,45],"right_children":[2,4,6,8,10,12,14,16,18,20,22,-1,24,-1,26,28,30,32,34,36,38,40,42,44,46,-1,48,50,52,-1,54,56,58,60,62,-1,64,-1,-1,66,-1,68,70,72,74,76,-1,-1,-1,-1,-1,-1,-1,-1,-1,-1,-1,-1,-1,-1,-1,-1,-1,-1,-1,-1,-1,-1,-1,-1,-1,-1,-1,-1,-1,-1,-1],"split_conditions":[9.114938E-1,2.5628302E0,6.6650194E-1,1.4511137E0,-6.910156E-1,1.7945639E0,-6.5592694E-1,1.9415845E-1,9.836469E-1,-3.029042E-1,3.4497893E-1,2.8327763E-1,6.9533485E-1,7.878736E-2,2.7547805E0,-1.2462629E-1,-8.284243E-1,-2.1509063E-1,-1.221285E0,6.079053E-1,-1.15287155E-1,6.6650194E-1,-5.165213E-1,-2.1982367E-1,3.5119245E0,2.9131243E-1,1.8175104E0,-2.9303205E-1,-1.23726256E-1,3.7906143E-1,3.2638784E-2,-1.4689556E-2,-7.6930344E-1,2.2684438E0,1.9908996E-1,3.1073296E-1,-2.9303205E-1,-2.387908E-1,4.0914886E-2,5.16023E0,1.0083581E-1,-2.8470623E-1,3.5343688E0,2.5812744E-3,4.0055746E-1,-4.74598E-2,1.7451152E-1,2.494531E-3,1.7345789E-1,-4.9722515E-2,4.041123E-2,-2.767849E-1,-2.3875833E-2,6.1317575E-1,3.4247276E-1,-1.2787379E-2,-2.54663E-1,-1.3596829E-2,-2.2073147E-1,-3.130952E-1,-4.7154255E-2,3.784687E-1,-1.6638538E-1,2.0629841E-1,-1.4073607E-1,-3.147076E-1,4.9423963E-2,5.948685E-1,1.5692566E-1,-2.7805004E-1,1.7839016E-2,-8.2151E-2,1.4188045E-1,2.5106573E-1,-9.946675E-2,-3.0351873E-2,-3.8554117E-1],"split_indices":[5,0,9,2,11,5,14,2,16,17,19,0,24,0,8,22,0,0,1,4,20,9,23,17,13,0,5,22,22,0,5,19,6,16,20,0,22,0,0,11,0,21,23,27,17,0,0,0,0,0,0,0,0,0,0,0,0,0,0,0,0,0,0,0,0,0,0,0,0,0,0,0,0,0,0,0,0],"split_type":[0,0,0,0,0,0,0,0,0,0,0,0,0,0,0,0,0,0,0,0,0,0,0,0,0,0,0,0,0,0,0,0,0,0,0,0,0,0,0,0,0,0,0,0,0,0,0,0,0,0,0,0,0,0,0,0,0,0,0,0,0,0,0,0,0,0,0,0,0,0,0,0,0,0,0,0,0],"sum_hessian":[3.0572114E3,2.9642295E3,9.298199E1,2.9034553E3,6.077416E1,6.707173E1,2.591025E1,2.4206418E3,4.8281348E2,6.9849277E0,5.378923E1,1.061002E1,5.6461716E1,1.0041502E0,2.49061E1,2.3526233E3,6.801836E1,4.3889175E2,4.3921715E1,4.6709394E0,2.3139884E0,3.5815567E1,1.7973663E1,5.1229565E1,5.23215E0,2.2582506E1,2.3235939E0,1.6061483E3,7.4647516E2,2.2638193E1,4.538017E1,3.03836E2,1.3505574E2,1.3945505E1,2.997621E1,2.4891198E0,2.1818197E0,1.3023947E0,1.0115936E0,3.4380836E1,1.4347302E0,2.745862E0,1.5227802E1,2.9159506E1,2.2070059E1,4.008741E0,1.2234094E0,1.0079813E0,1.3156126E0,4.6177972E2,1.1443685E3,5.7287544E1,6.8918756E2,3.8472176E1,6.9079905E0,2.8453778E2,1.9298208E1,3.668074E1,9.837501E1,9.5816555E0,4.36385E0,2.3612547E1,6.3636627E0,1.0976007E0,1.0842191E0,3.229411E1,2.0867283E0,1.1626133E0,1.5832487E0,9.661737E0,5.566064E0,1.5334992E1,1.3824513E1,2.0520868E1,1.5491903E0,1.5372376E0,2.4715033E0],"tree_param":{"num_deleted":"0","num_feature":"29","num_nodes":"77","size_leaf_vector":"1"}},{"base_weights":[4.38439E-3,-1.739128E-2,3.3339798E-1,-2.5205067E-1,1.1739832E-2,2.3482728E-1,7.193487E-1,-2.94008E-2,-8.163106E-1,1.3769749E-1,-6.0352173E-2,3.2524905E-1,-2.3383649E-1,-1.8986051E-1,7.738316E-1,3.4386244E-2,-8.155371E-1,-3.713794E-1,-1.0097606E0,7.709963E-2,1.545934E0,-5.00339E-1,-2.7695632E-2,4.800169E-1,6.514896E-2,5.615187E-1,-5.345171E-1,8.7176543E-1,7.853091E-2,-1.5420502E-1,3.5195833E-1,9.299819E-2,-9.237955E-1,1.2499693E-2,-1.1259552E0,-1.2713398E0,-5.001297E-1,2.5152433E-1,-7.380949E-2,3.7862203E-1,5.3780484E-1,-5.4947644E-1,9.233084E-1,2.3297171E-1,-7.687993E-2,3.8946456E-1,1.1141907E0,-6.364352E-1,2.363779E-1,8.286943E-1,-1.6442437E-1,-1.505998E0,2.140533E-2,8.985876E-1,1.23366285E-2,-2.7129692E-1,5.4802936E-1,-1.7971388E-1,2.7480336E-2,-9.8795295E-2,1.7332846E-1,-3.048857E-1,-7.161635E-2,9.1525756E-2,-2.4875547E-1,6.746106E-2,-4.9620482E-1,-4.0783036E-1,-5.7575233E-2,-2.1224473E-1,1.2334564E-1,-4.2164788E-2,1.1136917E-1,3.9231814E-2,-7.857334E-2,-8.9305975E-2,-2.2350253E-1,3.618069E-1,1.7414594E-2,9.33784E-3,3.147909E-1,-1.5138543E-1,-2.9473566E-4,1.4876348E-1,-1.468545E-1,3.6048403E-1,9.1030434E-2,-4.894786E-1,-2.8264267E-2,2.0104831E-1,-4.493936E-2,2.7140006E-1,6.426637E-2,-8.2200545E-1,-1.04197085E-1,1.2924807E-1,-2.2244985E-1,4.334645E-2,2.780307E-1,-6.474582E-2,2.557844E-1],"categories":[],"categories_nodes":[],"categories_segments":[],"categories_sizes":[],"default_left":[0,0,0,0,0,0,0,0,0,0,0,0,0,0,0,0,0,0,0,0,0,0,0,0,0,0,0,0,0,0,0,0,0,0,0,0,0,0,0,0,0,0,0,0,0,0,0,0,0,0,0,0,0,0,0,0,0,0,0,0,0,0,0,0,0,0,0,0,0,0,0,0,0,0,0,0,0,0,0,0,0,0,0,0,0,0,0,0,0,0,0,0,0,0,0,0,0,0,0,0,0],"id":15,"left_children":[1,3,5,7,9,11,13,15,17,19,21,23,25,-1,27,29,31,33,35,37,39,41,43,45,47,49,51,53,55,57,59,-1,61,63,65,67,69,71,73,-1,-1,75,77,79,81,83,85,87,89,91,-1,93,95,97,-1,-1,99,-1,-1,-1,-1,-1,-1,-1,-1,-1,-1,-1,-1,-1,-1,-1,-1,-1,-1,-1,-1,-1,-1,-1,-1,-1,-1,-1,-1,-1,-1,-1,-1,-1,-1,-1,-1,-1,-1,-1,-1,-1,-1,-1,-1],"loss_changes":[2.1546087E1,1.9285978E1,6.9331703E0,3.9117878E1,2.2803112E1,6.4407043E0,3.2520256E0,1.128281E1,7.2092934E0,7.788444E1,2.293566E1,5.0536556E0,6.2482657E0,0E0,2.416399E0,1.2545093E1,2.3437777E0,8.206883E0,7.4736137E0,2.3114174E1,3.7519073E-1,8.223204E0,1.9094118E1,4.104851E0,5.9504123E0,2.6215897E0,1.005654E1,6.734905E-1,3.0817084E0,1.4438822E1,1.2191072E1,0E0,7.4930954E-1,5.11317E0,7.182719E0,3.5000153E0,4.5011277E0,1.916473E1,1.816678E1,0E0,0E0,5.058235E0,9.2145467E-1,3.8925034E1,4.066048E1,6.855624E0,2.9725933E-1,5.103278E0,6.7236147E0,9.9852085E-2,0E0,8.727755E0,4.31489E0,5.215359E-1,0E0,0E0,1.2112614E0,0E0,0E0,0E0,0E0,0E0,0E0,0E0,0E0,0E0,0E0,0E0,0E0,0E0,0E0,0E0,0E0,0E0,0E0,0E0,0E0,0E0,0E0,0E0,0E0,0E0,0E0,0E0,0E0,0E0,0E0,0E0,0E0,0E0,0E0,0E0,0E0,0E0,0E0,0E0,0E0,0E0,0E0,0E0,0E0],"parents":[2147483647,0,0,1,1,2,2,3,3,4,4,5,5,6,6,7,7,8,8,9,9,10,10,11,11,12,12,14,14,15,15,16,16,17,17,18,18,19,19,20,20,21,21,22,22,23,23,24,24,25,25,26,26,27,27,28,28,29,29,30,30,32,32,33,33,34,34,35,35,36,36,37,37,38,38,41,41,42,42,43,43,44,44,45,45,46,46,47,47,48,48,49,49,51,51,52,52,53,53,56,56],"right_children":[2,4,6,8,10,12,14,16,18,20,22,24,26,-1,28,30,32,34,36,38,40,42,44,46,48,50,52,54,56,58,60,-1,62,64,66,68,70,72,74,-1,-1,76,78,80,82,84,86,88,90,92,-1,94,96,98,-1,-1,100,-1,-1,-1,-1,-1,-1,-1,-1,-1,-1,-1,-1,-1,-1,-1,-1,-1,-1,-1,-1,-1,-1,-1,-1,-1,-1,-1,-1,-1,-1,-1,-1,-1,-1,-1,-1,-1,-1,-1,-1,-1,-1,-1,-1],"split_conditions":[2.9657835E-1,-3.4171966E-1,6.6650194E-1,-7.235699E-1,2.5313738E-1,7.988779E-3,-6.4961773E-1,-4.895246E-2,-6.167934E-1,-4.7416735E-1,-2.923695E-1,-1.5942541E-1,-3.8808227E-1,-1.8986051E-1,5.4870103E-2,4.913322E-1,-6.656928E-1,-3.1367794E-1,5.804834E-1,-6.5726256E-1,-1.4643182E-1,2.104093E0,-9.0549827E-1,1.7227478E-2,-6.876905E-1,1.4184295E0,1.6929658E-2,1.6430102E-1,-3.5719746E-1,-1.6980102E0,-3.6927342E-1,9.299819E-2,-2.9899538E-1,1.9415845E-1,-6.842885E-1,1.6871649E-1,-4.9031457E-1,-1.6980102E0,-2.1581379E-1,3.7862203E-1,5.3780484E-1,-4.4167036E-1,-2.2888064E-1,-1.0519677E0,-9.0228015E-1,1.9374382E-2,2.6552448E-1,-5.8931893E-1,3.2033992E-1,-2.3431754E-1,-1.6442437E-1,-4.293711E-1,-8.284243E-1,-1.1877205E0,1.23366285E-2,-2.7129692E-1,-2.659475E-1,-1.7971388E-1,2.7480336E-2,-9.8795295E-2,1.7332846E-1,-3.048857E-1,-7.161635E-2,9.1525756E-2,-2.4875547E-1,6.746106E-2,-4.9620482E-1,-4.0783036E-1,-5.7575233E-2,-2.1224473E-1,1.2334564E-1,-4.2164788E-2,1.1136917E-1,3.9231814E-2,-7.857334E-2,-8.9305975E-2,-2.2350253E-1,3.618069E-1,1.7414594E-2,9.33784E-3,3.147909E-1,-1.5138543E-1,-2.9473566E-4,1.4876348E-1,-1.468545E-1,3.6048403E-1,9.1030434E-2,-4.894786E-1,-2.8264267E-2,2.0104831E-1,-4.493936E-2,2.7140006E-1,6.426637E-2,-8.2200545E-1,-1.04197085E-1,1.2924807E-1,-2.2244985E-1,4.334645E-2,2.780307E-1,-6.474582E-2,2.557844E-1],"split_indices":[6,17,9,6,10,27,16,24,0,10,22,18,11,0,18,0,15,21,0,12,18,10,0,19,7,2,27,20,0,5,4,0,13,2,11,18,16,5,24,0,0,11,17,0,0,12,24,0,16,22,0,24,0,0,0,0,4,0,0,0,0,0,0,0,0,0,0,0,0,0,0,0,0,0,0,0,0,0,0,0,0,0,0,0,0,0,0,0,0,0,0,0,0,0,0,0,0,0,0,0,0],"split_type":[0,0,0,0,0,0,0,0,0,0,0,0,0,0,0,0,0,0,0,0,0,0,0,0,0,0,0,0,0,0,0,0,0,0,0,0,0,0,0,0,0,0,0,0,0,0,0,0,0,0,0,0,0,0,0,0,0,0,0,0,0,0,0,0,0,0,0,0,0,0,0,0,0,0,0,0,0,0,0,0,0,0,0,0,0,0,0,0,0,0,0,0,0,0,0,0,0,0,0,0,0],"sum_hessian":[3.0055342E3,2.8198503E3,1.8568384E2,3.1055878E2,2.5092915E3,1.4918968E2,3.6494167E1,2.2344305E2,8.711572E1,9.130753E2,1.5962162E3,1.2531751E2,2.3872162E1,1.0022893E0,3.549188E1,2.0755807E2,1.5884988E1,2.7283651E1,5.9832066E1,8.7641693E2,3.6658367E1,1.09298515E2,1.4869177E3,7.8037315E1,4.7280197E1,6.310978E0,1.7561184E1,3.0887539E1,4.6043386E0,1.3054681E2,7.7011246E1,1.230314E0,1.4654674E1,1.8735622E1,8.54803E0,3.8550545E1,2.1281525E1,4.062249E2,4.7019205E2,1.9890772E1,1.6767593E1,1.0624547E2,3.0530457E0,2.3543272E2,1.251485E3,6.969924E1,8.3380785E0,8.742458E0,3.853774E1,5.290308E0,1.0206699E0,5.769648E0,1.1791535E1,2.9842115E1,1.0454237E0,1.1890401E0,3.4152985E0,4.595105E1,8.459577E1,1.9056631E1,5.795462E1,1.2485565E1,2.1691084E0,1.437583E1,4.359792E0,2.56379E0,5.98424E0,3.5401886E1,3.1486583E0,1.7518917E1,3.7626069E0,9.497601E1,3.112489E2,2.2537526E2,2.4481679E2,4.75443E1,5.870117E1,2.0043256E0,1.0487201E0,1.8959236E2,4.5840366E1,1.8774652E2,1.0637384E3,6.2561123E1,7.1381154E0,7.091338E0,1.2467403E0,2.3747983E0,6.3676596E0,1.7803764E1,2.0733974E1,4.2878947E0,1.002413E0,2.1330764E0,3.6365716E0,7.956741E0,3.8347945E0,1.295775E0,2.8546339E1,1.0567013E0,2.358597E0],"tree_param":{"num_deleted":"0","num_feature":"29","num_nodes":"101","size_leaf_vector":"1"}},{"base_weights":[3.9192094E-3,-1.413821E-2,3.3978352E-1,-7.732289E-3,-8.3513963E-1,3.7316284E-1,2.7187237E-1,7.850889E-3,-3.2680267E-1,-9.67878E-1,1.9913824E-1,1.3252248E-1,6.7184895E-1,2.7463108E-3,5.17552E-1,2.728185E-1,-5.152899E-1,-2.70944E-1,-1.0816739E0,-9.7657716E-1,1.8098599E-1,7.9919887E-1,-2.333611E-1,-2.3160896E-1,2.6592914E-2,4.582229E-1,-3.378304E-1,-7.526615E-1,-5.4474E-2,2.0311867E-1,-2.4024107E-1,-1.03187315E-1,-3.422105E-1,-3.179762E-2,-3.8349876E-1,-2.0288032E-1,3.1544176E-1,8.377065E-1,-4.494433E-2,-2.89376E-1,2.5966808E-1,4.127654E-3,-2.1277925E-1,4.9817157E-1,6.432283E-4,5.0966334E-2,3.3833203E-1,-2.3502101E-1,3.1945223E-1,-2.5192723E-1,6.774386E-2,3.8939368E-2,-3.227868E-1,-1.4533304E-1,2.2380668E-1,2.6468435E-2,1.8621886E-1,1.0248169E-1,2.7580273E-1,1.7480391E-1,-9.6282296E-2],"categories":[],"categories_nodes":[],"categories_segments":[],"categories_sizes":[],"default_left":[0,0,0,0,0,0,0,0,0,0,0,0,0,0,0,0,0,0,0,0,0,0,0,0,0,0,0,0,0,0,0,0,0,0,0,0,0,0,0,0,0,0,0,0,0,0,0,0,0,0,0,0,0,0,0,0,0,0,0,0,0],"id":16,"left_children":[1,3,5,7,9,-1,11,13,15,17,-1,19,21,23,-1,25,27,29,31,33,35,37,39,41,43,45,47,49,51,-1,-1,-1,-1,-1,-1,53,55,57,-1,-1,59,-1,-1,-1,-1,-1,-1,-1,-1,-1,-1,-1,-1,-1,-1,-1,-1,-1,-1,-1,-1],"loss_changes":[1.7858858E1,1.4691216E1,8.88616E0,1.3795233E1,4.9455233E0,0E0,7.771035E0,2.3188898E1,1.4742302E1,1.3148613E0,0E0,5.8652215E0,4.358551E0,1.4754196E1,0E0,3.7270918E0,1.0748943E1,2.6418364E0,3.5203934E-1,1.0695515E0,5.341082E0,1.2932167E0,2.1387055E0,2.8586697E1,9.571921E1,4.563008E0,5.786864E0,5.731346E0,6.655191E0,0E0,0E0,0E0,0E0,0E0,0E0,7.610177E0,5.224796E0,9.357338E-1,0E0,0E0,9.2146677E-1,0E0,0E0,0E0,0E0,0E0,0E0,0E0,0E0,0E0,0E0,0E0,0E0,0E0,0E0,0E0,0E0,0E0,0E0,0E0,0E0],"parents":[2147483647,0,0,1,1,2,2,3,3,4,4,6,6,7,7,8,8,9,9,11,11,12,12,13,13,15,15,16,16,17,17,18,18,19,19,20,20,21,21,22,22,23,23,24,24,25,25,26,26,27,27,28,28,35,35,36,36,37,37,40,40],"right_children":[2,4,6,8,10,-1,12,14,16,18,-1,20,22,24,-1,26,28,30,32,34,36,38,40,42,44,46,48,50,52,-1,-1,-1,-1,-1,-1,54,56,58,-1,-1,60,-1,-1,-1,-1,-1,-1,-1,-1,-1,-1,-1,-1,-1,-1,-1,-1,-1,-1,-1,-1],"split_conditions":[7.4534893E-1,3.9816847E0,1.9923155E0,1.900084E0,1.6156534E-2,3.7316284E-1,3.2638784E-2,1.8074695E0,-6.874501E-1,-8.550739E-3,1.9913824E-1,-6.681127E-1,5.4870103E-2,-1.2406578E0,5.17552E-1,-4.2713484E-1,-1.2334472E-1,-2.813817E-1,-4.9277288E-1,-1.2222667E0,-5.1333206E-3,6.4943117E-1,-1.56905E-1,-1.2460198E0,-1.1375335E0,-2.8782386E-1,7.237704E-2,5.5998433E-2,4.5009747E-1,2.0311867E-1,-2.4024107E-1,-1.03187315E-1,-3.422105E-1,-3.179762E-2,-3.8349876E-1,7.335498E-1,-2.0860934E-1,-4.6488124E-1,-4.494433E-2,-2.89376E-1,4.1426367E-1,4.127654E-3,-2.1277925E-1,4.9817157E-1,6.432283E-4,5.0966334E-2,3.3833203E-1,-2.3502101E-1,3.1945223E-1,-2.5192723E-1,6.774386E-2,3.8939368E-2,-3.227868E-1,-1.4533304E-1,2.2380668E-1,2.6468435E-2,1.8621886E-1,1.0248169E-1,2.7580273E-1,1.7480391E-1,-9.6282296E-2],"split_indices":[10,2,10,4,27,0,5,4,11,27,0,14,18,4,0,24,19,21,24,8,27,20,24,4,4,21,19,27,21,0,0,0,0,0,0,4,22,24,0,0,18,0,0,0,0,0,0,0,0,0,0,0,0,0,0,0,0,0,0,0,0],"split_type":[0,0,0,0,0,0,0,0,0,0,0,0,0,0,0,0,0,0,0,0,0,0,0,0,0,0,0,0,0,0,0,0,0,0,0,0,0,0,0,0,0,0,0,0,0,0,0,0,0,0,0,0,0,0,0,0,0,0,0,0,0],"sum_hessian":[2.942861E3,2.7936226E3,1.492385E2,2.7729954E3,2.0627071E1,9.217032E0,1.4002147E2,2.6448005E3,1.2819485E2,1.9274504E1,1.3525683E0,1.048304E2,3.5191074E1,2.637961E3,6.839491E0,3.05526E1,9.764225E1,3.1799726E0,1.609453E1,3.5871348E0,1.0124326E2,3.0953482E1,4.237592E0,2.4282802E2,2.395133E3,2.362824E1,6.9243608E0,6.402758E1,3.3614674E1,1.0405114E0,2.1394613E0,1.6981736E0,1.4396357E1,1.2711096E0,2.3160253E0,2.6131079E1,7.511218E1,2.9859186E1,1.0942961E0,1.3213745E0,2.9162176E0,1.6106259E2,8.176542E1,3.4322903E1,2.36081E3,1.73922E1,6.23604E0,5.5900993E0,1.334261E0,5.8924377E1,5.1032004E0,2.9216963E1,4.3977094E0,2.0529062E1,5.6020164E0,4.380147E1,3.1310709E1,4.951774E0,2.4907412E1,1.871484E0,1.0447335E0],"tree_param":{"num_deleted":"0","num_feature":"29","num_nodes":"61","size_leaf_vector":"1"}},{"base_weights":[3.6066107E-3,-3.09008E-1,1.9938607E-2,1.5889436E-1,-7.9425466E-1,1.6261659E0,4.078997E-3,-2.798216E-1,4.7876105E-1,-1.0709585E0,1.4104684E-1,5.1746887E-1,2.6920328E-1,-4.9511224E-1,2.0054279E-2,-4.031911E-1,1.2171469E0,-1.1524216E0,1.2301812E-1,1.258149E0,-5.3333247E-1,-9.8719046E-2,-7.3415744E-1,4.286923E-1,3.1186007E-3,-4.7864163E-1,3.0470568E-1,5.1327753E-1,-7.584414E-2,-1.2136422E0,-1.4631289E-1,-2.3275577E-1,1.9252051E-1,-3.9385773E-2,1.7184988E0,4.3107465E-1,-8.661808E-1,-3.619189E-1,7.923115E-1,-1.007729E0,-2.5327262E-1,-3.104486E-1,3.1255744E-2,-6.160531E-2,-3.497158E-1,-4.1678038E-1,-2.0123886E-1,2.722223E-1,-3.9193627E-1,5.7049805E-1,1.5461439E-1,-1.20054536E-1,2.8783688E-1,-4.643272E-1,-1.1553416E-1,4.2974435E-2,-2.6365733E-1,4.3753973E-1,-2.0392884E-1,-3.3820808E-1,3.4503326E-2,1.6377886E-1,-2.7783993E-1,2.8563531E-2,-2.4928136E-1,4.9309316E-1,